{"learner":{"attributes":{"best_iteration":"1205","best_score":"0.712917368287922","scikit_learn":"{\"_estimator_type\": \"regressor\"}"},"feature_names":["bbch_code","plant_susceptibility","bbch_code_velocity","plant_susceptibility_velocity","forcing_state_velocity","bbch_code_acceleration","plant_susceptibility_acceleration","temp","temp_dew","prec","rh","wind_10m","lw","rule310","rule310_cum","dmcast","dmcast_cum","misfits","misfits_cum","week_cos"],"feature_types":["float","float","float","float","float","float","float","float","float","float","float","float","int","float","float","float","float","float","float","float"],"gradient_booster":{"model":{"gbtree_model_param":{"num_parallel_tree":"1","num_trees":"1306"},"iteration_indptr":[0,1,2,3,4,5,6,7,8,9,10,11,12,13,14,15,16,17,18,19,20,21,22,23,24,25,26,27,28,29,30,31,32,33,34,35,36,37,38,39,40,41,42,43,44,45,46,47,48,49,50,51,52,53,54,55,56,57,58,59,60,61,62,63,64,65,66,67,68,69,70,71,72,73,74,75,76,77,78,79,80,81,82,83,84,85,86,87,88,89,90,91,92,93,94,95,96,97,98,99,100,101,102,103,104,105,106,107,108,109,110,111,112,113,114,115,116,117,118,119,120,121,122,123,124,125,126,127,128,129,130,131,132,133,134,135,136,137,138,139,140,141,142,143,144,145,146,147,148,149,150,151,152,153,154,155,156,157,158,159,160,161,162,163,164,165,166,167,168,169,170,171,172,173,174,175,176,177,178,179,180,181,182,183,184,185,186,187,188,189,190,191,192,193,194,195,196,197,198,199,200,201,202,203,204,205,206,207,208,209,210,211,212,213,214,215,216,217,218,219,220,221,222,223,224,225,226,227,228,229,230,231,232,233,234,235,236,237,238,239,240,241,242,243,244,245,246,247,248,249,250,251,252,253,254,255,256,257,258,259,260,261,262,263,264,265,266,267,268,269,270,271,272,273,274,275,276,277,278,279,280,281,282,283,284,285,286,287,288,289,290,291,292,293,294,295,296,297,298,299,300,301,302,303,304,305,306,307,308,309,310,311,312,313,314,315,316,317,318,319,320,321,322,323,324,325,326,327,328,329,330,331,332,333,334,335,336,337,338,339,340,341,342,343,344,345,346,347,348,349,350,351,352,353,354,355,356,357,358,359,360,361,362,363,364,365,366,367,368,369,370,371,372,373,374,375,376,377,378,379,380,381,382,383,384,385,386,387,388,389,390,391,392,393,394,395,396,397,398,399,400,401,402,403,404,405,406,407,408,409,410,411,412,413,414,415,416,417,418,419,420,421,422,423,424,425,426,427,428,429,430,431,432,433,434,435,436,437,438,439,440,441,442,443,444,445,446,447,448,449,450,451,452,453,454,455,456,457,458,459,460,461,462,463,464,465,466,467,468,469,470,471,472,473,474,475,476,477,478,479,480,481,482,483,484,485,486,487,488,489,490,491,492,493,494,495,496,497,498,499,500,501,502,503,504,505,506,507,508,509,510,511,512,513,514,515,516,517,518,519,520,521,522,523,524,525,526,527,528,529,530,531,532,533,534,535,536,537,538,539,540,541,542,543,544,545,546,547,548,549,550,551,552,553,554,555,556,557,558,559,560,561,562,563,564,565,566,567,568,569,570,571,572,573,574,575,576,577,578,579,580,581,582,583,584,585,586,587,588,589,590,591,592,593,594,595,596,597,598,599,600,601,602,603,604,605,606,607,608,609,610,611,612,613,614,615,616,617,618,619,620,621,622,623,624,625,626,627,628,629,630,631,632,633,634,635,636,637,638,639,640,641,642,643,644,645,646,647,648,649,650,651,652,653,654,655,656,657,658,659,660,661,662,663,664,665,666,667,668,669,670,671,672,673,674,675,676,677,678,679,680,681,682,683,684,685,686,687,688,689,690,691,692,693,694,695,696,697,698,699,700,701,702,703,704,705,706,707,708,709,710,711,712,713,714,715,716,717,718,719,720,721,722,723,724,725,726,727,728,729,730,731,732,733,734,735,736,737,738,739,740,741,742,743,744,745,746,747,748,749,750,751,752,753,754,755,756,757,758,759,760,761,762,763,764,765,766,767,768,769,770,771,772,773,774,775,776,777,778,779,780,781,782,783,784,785,786,787,788,789,790,791,792,793,794,795,796,797,798,799,800,801,802,803,804,805,806,807,808,809,810,811,812,813,814,815,816,817,818,819,820,821,822,823,824,825,826,827,828,829,830,831,832,833,834,835,836,837,838,839,840,841,842,843,844,845,846,847,848,849,850,851,852,853,854,855,856,857,858,859,860,861,862,863,864,865,866,867,868,869,870,871,872,873,874,875,876,877,878,879,880,881,882,883,884,885,886,887,888,889,890,891,892,893,894,895,896,897,898,899,900,901,902,903,904,905,906,907,908,909,910,911,912,913,914,915,916,917,918,919,920,921,922,923,924,925,926,927,928,929,930,931,932,933,934,935,936,937,938,939,940,941,942,943,944,945,946,947,948,949,950,951,952,953,954,955,956,957,958,959,960,961,962,963,964,965,966,967,968,969,970,971,972,973,974,975,976,977,978,979,980,981,982,983,984,985,986,987,988,989,990,991,992,993,994,995,996,997,998,999,1000,1001,1002,1003,1004,1005,1006,1007,1008,1009,1010,1011,1012,1013,1014,1015,1016,1017,1018,1019,1020,1021,1022,1023,1024,1025,1026,1027,1028,1029,1030,1031,1032,1033,1034,1035,1036,1037,1038,1039,1040,1041,1042,1043,1044,1045,1046,1047,1048,1049,1050,1051,1052,1053,1054,1055,1056,1057,1058,1059,1060,1061,1062,1063,1064,1065,1066,1067,1068,1069,1070,1071,1072,1073,1074,1075,1076,1077,1078,1079,1080,1081,1082,1083,1084,1085,1086,1087,1088,1089,1090,1091,1092,1093,1094,1095,1096,1097,1098,1099,1100,1101,1102,1103,1104,1105,1106,1107,1108,1109,1110,1111,1112,1113,1114,1115,1116,1117,1118,1119,1120,1121,1122,1123,1124,1125,1126,1127,1128,1129,1130,1131,1132,1133,1134,1135,1136,1137,1138,1139,1140,1141,1142,1143,1144,1145,1146,1147,1148,1149,1150,1151,1152,1153,1154,1155,1156,1157,1158,1159,1160,1161,1162,1163,1164,1165,1166,1167,1168,1169,1170,1171,1172,1173,1174,1175,1176,1177,1178,1179,1180,1181,1182,1183,1184,1185,1186,1187,1188,1189,1190,1191,1192,1193,1194,1195,1196,1197,1198,1199,1200,1201,1202,1203,1204,1205,1206,1207,1208,1209,1210,1211,1212,1213,1214,1215,1216,1217,1218,1219,1220,1221,1222,1223,1224,1225,1226,1227,1228,1229,1230,1231,1232,1233,1234,1235,1236,1237,1238,1239,1240,1241,1242,1243,1244,1245,1246,1247,1248,1249,1250,1251,1252,1253,1254,1255,1256,1257,1258,1259,1260,1261,1262,1263,1264,1265,1266,1267,1268,1269,1270,1271,1272,1273,1274,1275,1276,1277,1278,1279,1280,1281,1282,1283,1284,1285,1286,1287,1288,1289,1290,1291,1292,1293,1294,1295,1296,1297,1298,1299,1300,1301,1302,1303,1304,1305,1306],"tree_info":[0,0,0,0,0,0,0,0,0,0,0,0,0,0,0,0,0,0,0,0,0,0,0,0,0,0,0,0,0,0,0,0,0,0,0,0,0,0,0,0,0,0,0,0,0,0,0,0,0,0,0,0,0,0,0,0,0,0,0,0,0,0,0,0,0,0,0,0,0,0,0,0,0,0,0,0,0,0,0,0,0,0,0,0,0,0,0,0,0,0,0,0,0,0,0,0,0,0,0,0,0,0,0,0,0,0,0,0,0,0,0,0,0,0,0,0,0,0,0,0,0,0,0,0,0,0,0,0,0,0,0,0,0,0,0,0,0,0,0,0,0,0,0,0,0,0,0,0,0,0,0,0,0,0,0,0,0,0,0,0,0,0,0,0,0,0,0,0,0,0,0,0,0,0,0,0,0,0,0,0,0,0,0,0,0,0,0,0,0,0,0,0,0,0,0,0,0,0,0,0,0,0,0,0,0,0,0,0,0,0,0,0,0,0,0,0,0,0,0,0,0,0,0,0,0,0,0,0,0,0,0,0,0,0,0,0,0,0,0,0,0,0,0,0,0,0,0,0,0,0,0,0,0,0,0,0,0,0,0,0,0,0,0,0,0,0,0,0,0,0,0,0,0,0,0,0,0,0,0,0,0,0,0,0,0,0,0,0,0,0,0,0,0,0,0,0,0,0,0,0,0,0,0,0,0,0,0,0,0,0,0,0,0,0,0,0,0,0,0,0,0,0,0,0,0,0,0,0,0,0,0,0,0,0,0,0,0,0,0,0,0,0,0,0,0,0,0,0,0,0,0,0,0,0,0,0,0,0,0,0,0,0,0,0,0,0,0,0,0,0,0,0,0,0,0,0,0,0,0,0,0,0,0,0,0,0,0,0,0,0,0,0,0,0,0,0,0,0,0,0,0,0,0,0,0,0,0,0,0,0,0,0,0,0,0,0,0,0,0,0,0,0,0,0,0,0,0,0,0,0,0,0,0,0,0,0,0,0,0,0,0,0,0,0,0,0,0,0,0,0,0,0,0,0,0,0,0,0,0,0,0,0,0,0,0,0,0,0,0,0,0,0,0,0,0,0,0,0,0,0,0,0,0,0,0,0,0,0,0,0,0,0,0,0,0,0,0,0,0,0,0,0,0,0,0,0,0,0,0,0,0,0,0,0,0,0,0,0,0,0,0,0,0,0,0,0,0,0,0,0,0,0,0,0,0,0,0,0,0,0,0,0,0,0,0,0,0,0,0,0,0,0,0,0,0,0,0,0,0,0,0,0,0,0,0,0,0,0,0,0,0,0,0,0,0,0,0,0,0,0,0,0,0,0,0,0,0,0,0,0,0,0,0,0,0,0,0,0,0,0,0,0,0,0,0,0,0,0,0,0,0,0,0,0,0,0,0,0,0,0,0,0,0,0,0,0,0,0,0,0,0,0,0,0,0,0,0,0,0,0,0,0,0,0,0,0,0,0,0,0,0,0,0,0,0,0,0,0,0,0,0,0,0,0,0,0,0,0,0,0,0,0,0,0,0,0,0,0,0,0,0,0,0,0,0,0,0,0,0,0,0,0,0,0,0,0,0,0,0,0,0,0,0,0,0,0,0,0,0,0,0,0,0,0,0,0,0,0,0,0,0,0,0,0,0,0,0,0,0,0,0,0,0,0,0,0,0,0,0,0,0,0,0,0,0,0,0,0,0,0,0,0,0,0,0,0,0,0,0,0,0,0,0,0,0,0,0,0,0,0,0,0,0,0,0,0,0,0,0,0,0,0,0,0,0,0,0,0,0,0,0,0,0,0,0,0,0,0,0,0,0,0,0,0,0,0,0,0,0,0,0,0,0,0,0,0,0,0,0,0,0,0,0,0,0,0,0,0,0,0,0,0,0,0,0,0,0,0,0,0,0,0,0,0,0,0,0,0,0,0,0,0,0,0,0,0,0,0,0,0,0,0,0,0,0,0,0,0,0,0,0,0,0,0,0,0,0,0,0,0,0,0,0,0,0,0,0,0,0,0,0,0,0,0,0,0,0,0,0,0,0,0,0,0,0,0,0,0,0,0,0,0,0,0,0,0,0,0,0,0,0,0,0,0,0,0,0,0,0,0,0,0,0,0,0,0,0,0,0,0,0,0,0,0,0,0,0,0,0,0,0,0,0,0,0,0,0,0,0,0,0,0,0,0,0,0,0,0,0,0,0,0,0,0,0,0,0,0,0,0,0,0,0,0,0,0,0,0,0,0,0,0,0,0,0,0,0,0,0,0,0,0,0,0,0,0,0,0,0,0,0,0,0,0,0,0,0,0,0,0,0,0,0,0,0,0,0,0,0,0,0,0,0,0,0,0,0,0,0,0,0,0,0,0,0,0,0,0,0,0,0,0,0,0,0,0,0,0,0,0,0,0,0,0,0,0,0,0,0,0,0,0,0,0,0,0,0,0,0,0,0,0,0,0,0,0,0,0,0,0,0,0,0,0,0,0,0,0,0,0,0,0,0,0,0,0,0,0,0,0,0,0,0,0,0,0,0,0,0,0,0,0,0,0,0,0,0,0,0,0,0,0,0,0,0,0,0,0,0,0,0,0,0,0,0,0,0,0,0,0,0,0,0,0,0,0,0,0,0,0,0,0,0,0,0,0,0,0,0,0,0,0,0,0,0,0,0,0,0,0,0,0,0,0,0,0,0,0,0,0,0,0,0,0,0,0,0,0,0,0,0,0,0,0,0,0,0,0,0,0,0,0,0,0,0,0,0,0,0,0,0,0,0,0,0,0,0,0,0,0,0,0,0,0,0,0,0,0,0,0,0,0,0,0,0,0,0,0,0,0,0,0,0,0,0,0,0,0,0,0,0,0,0,0,0,0,0,0,0,0,0,0,0,0,0,0,0,0,0,0,0,0,0,0,0,0,0,0,0,0,0,0,0,0,0,0,0,0,0,0,0,0,0,0,0,0],"trees":[{"base_weights":[-1.0506014E-2,3.1897023E-1,-8.0352575E-1,5.366857E-1,-2.054685E-1,-1.0523826E0,1.6245006E-2,-1.2132432E-4,6.092292E-3,-3.5956625E-3,1.4592701E-3,-6.347365E-3,-1.2212666E-2,-2.2983633E-3,1.6280797E-3],"categories":[],"categories_nodes":[],"categories_segments":[],"categories_sizes":[],"default_left":[0,0,0,0,0,0,0,0,0,0,0,0,0,0,0],"id":0,"left_children":[1,3,5,7,9,11,13,-1,-1,-1,-1,-1,-1,-1,-1],"loss_changes":[3.2910156E2,1.0337574E2,7.677464E1,2.5909714E1,1.5620997E1,6.618347E0,4.1009E0,0E0,0E0,0E0,0E0,0E0,0E0,0E0,0E0],"parents":[2147483647,0,0,1,1,2,2,3,3,4,4,5,5,6,6],"right_children":[2,4,6,8,10,12,14,-1,-1,-1,-1,-1,-1,-1,-1],"split_conditions":[-5.6806475E-1,7.52E1,1.5E-1,6.041E1,5.1E1,-3.546049E-1,1E0,-1.2132432E-4,6.092292E-3,-3.5956625E-3,1.4592701E-3,-6.347365E-3,-1.2212666E-2,-2.2983633E-3,1.6280797E-3],"split_indices":[19,0,3,10,12,19,15,0,0,0,0,0,0,0,0],"split_type":[0,0,0,0,0,0,0,0,0,0,0,0,0,0,0],"sum_hessian":[1.228E3,8.73E2,3.55E2,6.18E2,2.55E2,2.7E2,8.5E1,7.2E1,5.46E2,1.79E2,7.6E1,1E2,1.7E2,2.6E1,5.9E1],"tree_param":{"num_deleted":"0","num_feature":"20","num_nodes":"15","size_leaf_vector":"1"}},{"base_weights":[-2.9250018E-2,-5.316992E-1,4.515379E-1,-1.11427076E-1,-1.0166714E0,3.426031E-2,6.754242E-1,3.164916E-3,-3.4581248E-3,-6.0242703E-3,-1.1841453E-2,-2.9690766E-3,2.3101952E-3,7.3838965E-3,2.2889262E-3],"categories":[],"categories_nodes":[],"categories_segments":[],"categories_sizes":[],"default_left":[0,0,0,0,0,0,0,0,0,0,0,0,0,0,0],"id":1,"left_children":[1,3,5,7,9,11,13,-1,-1,-1,-1,-1,-1,-1,-1],"loss_changes":[2.9767392E2,1.2007631E2,5.7706116E1,3.5872612E1,6.72995E0,1.6405987E1,7.9407654E0,0E0,0E0,0E0,0E0,0E0,0E0,0E0,0E0],"parents":[2147483647,0,0,1,1,2,2,3,3,4,4,5,5,6,6],"right_children":[2,4,6,8,10,12,14,-1,-1,-1,-1,-1,-1,-1,-1],"split_conditions":[1.5E-1,-5.6806475E-1,6E0,7.65E1,-3.546049E-1,6.3E0,5.5E1,3.164916E-3,-3.4581248E-3,-6.0242703E-3,-1.1841453E-2,-2.9690766E-3,2.3101952E-3,7.3838965E-3,2.2889262E-3],"split_indices":[3,19,18,0,19,9,0,0,0,0,0,0,0,0,0],"split_type":[0,0,0,0,0,0,0,0,0,0,0,0,0,0,0],"sum_hessian":[1.202E3,5.88E2,6.14E2,3.26E2,2.62E2,2.22E2,3.92E2,1.12E2,2.14E2,9.7E1,1.65E2,7.8E1,1.44E2,3.33E2,5.9E1],"tree_param":{"num_deleted":"0","num_feature":"20","num_nodes":"15","size_leaf_vector":"1"}},{"base_weights":[-1.1408124E-2,-5.410521E-1,4.6236655E-1,-1.3295658E-1,-9.7498286E-1,6.7178085E-2,6.5307426E-1,-2.8567144E-3,3.9855368E-3,-5.860635E-3,-1.1344943E-2,3.371219E-3,-1.0091722E-3,7.2820177E-3,2.3260738E-3],"categories":[],"categories_nodes":[],"categories_segments":[],"categories_sizes":[],"default_left":[0,0,0,0,0,0,0,0,0,0,0,0,0,0,0],"id":2,"left_children":[1,3,5,7,9,11,13,-1,-1,-1,-1,-1,-1,-1,-1],"loss_changes":[3.0946622E2,1.0018825E2,4.7609222E1,2.7488022E1,5.6145325E0,1.1183073E1,1.0239471E1,0E0,0E0,0E0,0E0,0E0,0E0,0E0,0E0],"parents":[2147483647,0,0,1,1,2,2,3,3,4,4,5,5,6,6],"right_children":[2,4,6,8,10,12,14,-1,-1,-1,-1,-1,-1,-1,-1],"split_conditions":[2E-1,-5.6806475E-1,6E0,7.9E1,-3.546049E-1,9E-1,5.47E1,-2.8567144E-3,3.9855368E-3,-5.860635E-3,-1.1344943E-2,3.371219E-3,-1.0091722E-3,7.2820177E-3,2.3260738E-3],"split_indices":[3,19,18,12,19,2,0,0,0,0,0,0,0,0,0],"split_type":[0,0,0,0,0,0,0,0,0,0,0,0,0,0,0],"sum_hessian":[1.203E3,5.68E2,6.35E2,3.04E2,2.64E2,2.15E2,4.2E2,2.43E2,6.1E1,9.9E1,1.65E2,7.9E1,1.36E2,3.45E2,7.5E1],"tree_param":{"num_deleted":"0","num_feature":"20","num_nodes":"15","size_leaf_vector":"1"}},{"base_weights":[-5.850543E-3,-5.205898E-1,4.917811E-1,-1.17123984E-1,-9.993993E-1,1.0106188E-1,6.7649895E-1,-2.6557106E-3,3.5368695E-3,-5.6758528E-3,-1.1621387E-2,-1.8492677E-3,2.7501395E-3,7.132652E-3,2.6833364E-3],"categories":[],"categories_nodes":[],"categories_segments":[],"categories_sizes":[],"default_left":[0,0,0,0,0,0,0,0,0,0,0,0,0,0,0],"id":3,"left_children":[1,3,5,7,9,11,13,-1,-1,-1,-1,-1,-1,-1,-1],"loss_changes":[3.153481E2,1.1419672E2,4.3304916E1,2.5572826E1,7.63089E0,1.179758E1,2.4503326E0,0E0,0E0,0E0,0E0,0E0,0E0,0E0,0E0],"parents":[2147483647,0,0,1,1,2,2,3,3,4,4,5,5,6,6],"right_children":[2,4,6,8,10,12,14,-1,-1,-1,-1,-1,-1,-1,-1],"split_conditions":[1.5E-1,-5.6806475E-1,6E0,7.9E1,-3.546049E-1,8.7E0,1.54E1,-2.6557106E-3,3.5368695E-3,-5.6758528E-3,-1.1621387E-2,-1.8492677E-3,2.7501395E-3,7.132652E-3,2.6833364E-3],"split_indices":[3,19,18,12,19,9,5,0,0,0,0,0,0,0,0],"split_type":[0,0,0,0,0,0,0,0,0,0,0,0,0,0,0],"sum_hessian":[1.201E3,5.91E2,6.1E2,3.32E2,2.59E2,2.05E2,4.05E2,2.59E2,7.3E1,9.1E1,1.68E2,7.5E1,1.3E2,3.59E2,4.6E1],"tree_param":{"num_deleted":"0","num_feature":"20","num_nodes":"15","size_leaf_vector":"1"}},{"base_weights":[-1.105318E-2,-5.065763E-1,4.7675553E-1,-7.158229E-1,-1.1226243E-2,4.909393E-2,6.828328E-1,-8.053858E-3,1.1299998E-3,-4.5772246E-3,1.1632956E-3,-2.5100147E-3,2.5102696E-3,8.137109E-3,4.0291185E-3],"categories":[],"categories_nodes":[],"categories_segments":[],"categories_sizes":[],"default_left":[0,0,0,0,0,0,0,0,0,0,0,0,0,0,0],"id":4,"left_children":[1,3,5,7,9,11,13,-1,-1,-1,-1,-1,-1,-1,-1],"loss_changes":[2.9879327E2,6.2793686E1,5.3582916E1,3.3977173E1,1.2473776E1,1.4276966E1,9.142609E0,0E0,0E0,0E0,0E0,0E0,0E0,0E0,0E0],"parents":[2147483647,0,0,1,1,2,2,3,3,4,4,5,5,6,6],"right_children":[2,4,6,8,10,12,14,-1,-1,-1,-1,-1,-1,-1,-1],"split_conditions":[1.5E-1,3.689E1,6E0,1.653E1,6.9E1,7.9E0,1.944E1,-8.053858E-3,1.1299998E-3,-4.5772246E-3,1.1632956E-3,-2.5100147E-3,2.5102696E-3,8.137109E-3,4.0291185E-3],"split_indices":[3,1,18,8,14,9,7,0,0,0,0,0,0,0,0],"split_type":[0,0,0,0,0,0,0,0,0,0,0,0,0,0,0],"sum_hessian":[1.206E3,5.99E2,6.07E2,4.15E2,1.84E2,2.05E2,4.02E2,3.76E2,3.9E1,3.4E1,1.5E2,7.9E1,1.26E2,2.52E2,1.5E2],"tree_param":{"num_deleted":"0","num_feature":"20","num_nodes":"15","size_leaf_vector":"1"}},{"base_weights":[7.6223155E-3,-4.9130988E-1,4.835194E-1,-7.36793E-2,-9.902544E-1,6.671925E-2,6.7563486E-1,-2.3174654E-3,4.0169125E-3,-6.3874507E-3,-1.1331018E-2,3.5612157E-3,-9.6439023E-4,7.771163E-3,3.7501794E-3],"categories":[],"categories_nodes":[],"categories_segments":[],"categories_sizes":[],"default_left":[0,0,0,0,0,0,0,0,0,0,0,0,0,0,0],"id":5,"left_children":[1,3,5,7,9,11,13,-1,-1,-1,-1,-1,-1,-1,-1],"loss_changes":[2.9323282E2,1.2328313E2,4.9268143E1,2.7149893E1,1.029419E0,1.106845E1,7.594406E0,0E0,0E0,0E0,0E0,0E0,0E0,0E0,0E0],"parents":[2147483647,0,0,1,1,2,2,3,3,4,4,5,5,6,6],"right_children":[2,4,6,8,10,12,14,-1,-1,-1,-1,-1,-1,-1,-1],"split_conditions":[2E-1,-5.6806475E-1,6E0,7.304E1,-3.546049E-1,9E-1,8.02E1,-2.3174654E-3,4.0169125E-3,-6.3874507E-3,-1.1331018E-2,3.5612157E-3,-9.6439023E-4,7.771163E-3,3.7501794E-3],"split_indices":[3,19,18,10,19,2,4,0,0,0,0,0,0,0,0],"split_type":[0,0,0,0,0,0,0,0,0,0,0,0,0,0,0],"sum_hessian":[1.205E3,5.87E2,6.18E2,3.3E2,2.57E2,2.03E2,4.15E2,2.55E2,7.5E1,1E2,1.57E2,6.9E1,1.34E2,2.9E2,1.25E2],"tree_param":{"num_deleted":"0","num_feature":"20","num_nodes":"15","size_leaf_vector":"1"}},{"base_weights":[3.7672028E-2,3.314293E-1,-7.1741873E-1,5.5030376E-1,-1.1212643E-1,-3.0410644E-1,-1.0280388E-2,2.0813697E-3,6.8471734E-3,-5.1619355E-3,8.376749E-4,-1.1905756E-4,-7.4444204E-3],"categories":[],"categories_nodes":[],"categories_segments":[],"categories_sizes":[],"default_left":[0,0,0,0,0,0,0,0,0,0,0,0,0],"id":6,"left_children":[1,3,5,7,9,11,-1,-1,-1,-1,-1,-1,-1],"loss_changes":[2.7578928E2,8.835012E1,3.865567E1,2.4748535E1,2.53814E1,2.1241322E1,0E0,0E0,0E0,0E0,0E0,0E0,0E0],"parents":[2147483647,0,0,1,1,2,2,3,3,4,4,5,5],"right_children":[2,4,6,8,10,12,-1,-1,-1,-1,-1,-1,-1],"split_conditions":[-5.6806475E-1,6.59E1,-3.546049E-1,6E0,1.6E1,1.1E1,-1.0280388E-2,2.0813697E-3,6.8471734E-3,-5.1619355E-3,8.376749E-4,-1.1905756E-4,-7.4444204E-3],"split_indices":[19,0,19,18,16,16,0,0,0,0,0,0,0],"split_type":[0,0,0,0,0,0,0,0,0,0,0,0,0],"sum_hessian":[1.214E3,8.81E2,3.33E2,5.89E2,2.92E2,1.57E2,1.76E2,1.79E2,4.1E2,8.9E1,2.03E2,1.05E2,5.2E1],"tree_param":{"num_deleted":"0","num_feature":"20","num_nodes":"13","size_leaf_vector":"1"}},{"base_weights":[6.747923E-4,-4.7206932E-1,4.5819157E-1,-6.382436E-2,-9.136717E-1,7.7249385E-2,6.3396424E-1,-2.2569285E-3,3.565849E-3,-4.865302E-3,-1.094112E-2,-2.4377021E-3,2.995983E-3,6.947948E-3,2.2159065E-3],"categories":[],"categories_nodes":[],"categories_segments":[],"categories_sizes":[],"default_left":[0,0,0,0,0,0,0,0,0,0,0,0,0,0,0],"id":7,"left_children":[1,3,5,7,9,11,13,-1,-1,-1,-1,-1,-1,-1,-1],"loss_changes":[2.6256033E2,1.0559581E2,3.9935013E1,2.3328972E1,1.2323471E1,1.6426294E1,7.28479E0,0E0,0E0,0E0,0E0,0E0,0E0,0E0,0E0],"parents":[2147483647,0,0,1,1,2,2,3,3,4,4,5,5,6,6],"right_children":[2,4,6,8,10,12,14,-1,-1,-1,-1,-1,-1,-1,-1],"split_conditions":[2E-1,-5.6806475E-1,6E0,7.246E1,-3.546049E-1,8.4E0,7.243E1,-2.2569285E-3,3.565849E-3,-4.865302E-3,-1.094112E-2,-2.4377021E-3,2.995983E-3,6.947948E-3,2.2159065E-3],"split_indices":[3,19,18,10,19,9,1,0,0,0,0,0,0,0,0],"split_type":[0,0,0,0,0,0,0,0,0,0,0,0,0,0,0],"sum_hessian":[1.184E3,5.81E2,6.03E2,3.12E2,2.69E2,1.99E2,4.04E2,2.32E2,8E1,9.8E1,1.71E2,7.9E1,1.2E2,3.41E2,6.3E1],"tree_param":{"num_deleted":"0","num_feature":"20","num_nodes":"15","size_leaf_vector":"1"}},{"base_weights":[-1.0233991E-2,2.9373363E-1,-7.4987525E-1,-1.3617717E-1,5.1486796E-1,-9.485348E-1,-5.107146E-2,-2.693688E-3,3.9623193E-3,1.7186452E-3,6.5449197E-3,-5.244621E-3,-1.1361401E-2,-3.6039695E-3,1.248574E-3],"categories":[],"categories_nodes":[],"categories_segments":[],"categories_sizes":[],"default_left":[0,0,0,0,0,0,0,0,0,0,0,0,0,0,0],"id":8,"left_children":[1,3,5,7,9,11,13,-1,-1,-1,-1,-1,-1,-1,-1],"loss_changes":[2.6838147E2,8.166781E1,4.658452E1,2.2535118E1,2.4401398E1,1.0802658E1,6.0259256E0,0E0,0E0,0E0,0E0,0E0,0E0,0E0,0E0],"parents":[2147483647,0,0,1,1,2,2,3,3,4,4,5,5,6,6],"right_children":[2,4,6,8,10,12,14,-1,-1,-1,-1,-1,-1,-1,-1],"split_conditions":[-5.6806475E-1,-1.68E0,1.5E-1,7.309E1,6E0,-3.546049E-1,2.4E1,-2.693688E-3,3.9623193E-3,1.7186452E-3,6.5449197E-3,-5.244621E-3,-1.1361401E-2,-3.6039695E-3,1.248574E-3],"split_indices":[19,3,3,10,18,19,14,0,0,0,0,0,0,0,0],"split_type":[0,0,0,0,0,0,0,0,0,0,0,0,0,0,0],"sum_hessian":[1.162E3,8.29E2,3.33E2,2.82E2,5.47E2,2.54E2,7.9E1,2.33E2,4.9E1,1.7E2,3.77E2,9.7E1,1.57E2,2.5E1,5.4E1],"tree_param":{"num_deleted":"0","num_feature":"20","num_nodes":"15","size_leaf_vector":"1"}},{"base_weights":[1.2933038E-2,3.1915972E-1,-7.000204E-1,5.8447516E-1,-7.259066E-2,-9.336721E-1,4.0232975E-2,2.3221844E-3,7.307931E-3,-4.1875173E-3,8.520766E-4,-5.5446113E-3,-1.08821215E-2,-1.0835152E-3,2.0590099E-3],"categories":[],"categories_nodes":[],"categories_segments":[],"categories_sizes":[],"default_left":[0,0,0,0,0,0,0,0,0,0,0,0,0,0,0],"id":9,"left_children":[1,3,5,7,9,11,13,-1,-1,-1,-1,-1,-1,-1,-1],"loss_changes":[2.7784207E2,9.386046E1,6.752818E1,2.4066132E1,2.118875E1,6.41893E0,3.0168433E0,0E0,0E0,0E0,0E0,0E0,0E0,0E0,0E0],"parents":[2147483647,0,0,1,1,2,2,3,3,4,4,5,5,6,6],"right_children":[2,4,6,8,10,12,14,-1,-1,-1,-1,-1,-1,-1,-1],"split_conditions":[-5.6806475E-1,5.5E1,2E-1,6E0,9E0,-3.546049E-1,4E1,2.3221844E-3,7.307931E-3,-4.1875173E-3,8.520766E-4,-5.5446113E-3,-1.08821215E-2,-1.0835152E-3,2.0590099E-3],"split_indices":[19,0,3,18,18,19,14,0,0,0,0,0,0,0,0],"split_type":[0,0,0,0,0,0,0,0,0,0,0,0,0,0,0],"sum_hessian":[1.244E3,8.77E2,3.67E2,5.2E2,3.57E2,2.77E2,9E1,1.66E2,3.54E2,1.06E2,2.51E2,1.02E2,1.75E2,4.7E1,4.3E1],"tree_param":{"num_deleted":"0","num_feature":"20","num_nodes":"15","size_leaf_vector":"1"}},{"base_weights":[1.9324094E-2,3.066106E-1,-7.2553223E-1,6.724841E-1,1.5275033E-2,-9.4976324E-1,-4.397134E-2,3.9160405E-3,7.7469796E-3,1.3181356E-3,-4.962627E-3,-7.003557E-3,-1.1848807E-2,-2.0895055E-3,1.3281597E-3],"categories":[],"categories_nodes":[],"categories_segments":[],"categories_sizes":[],"default_left":[0,0,0,0,0,0,0,0,0,0,0,0,0,0,0],"id":10,"left_children":[1,3,5,7,9,11,13,-1,-1,-1,-1,-1,-1,-1,-1],"loss_changes":[2.6162845E2,9.3385445E1,5.034105E1,5.4799194E0,3.0960218E1,5.6178284E-1,3.4382036E0,0E0,0E0,0E0,0E0,0E0,0E0,0E0,0E0],"parents":[2147483647,0,0,1,1,2,2,3,3,4,4,5,5,6,6],"right_children":[2,4,6,8,10,12,14,-1,-1,-1,-1,-1,-1,-1,-1],"split_conditions":[-5.6806475E-1,1.949E1,1.5E-1,9E0,-7.485108E-1,-2.3931566E-1,4E1,3.9160405E-3,7.7469796E-3,1.3181356E-3,-4.962627E-3,-7.003557E-3,-1.1848807E-2,-2.0895055E-3,1.3281597E-3],"split_indices":[19,7,3,16,19,19,14,0,0,0,0,0,0,0,0],"split_type":[0,0,0,0,0,0,0,0,0,0,0,0,0,0,0],"sum_hessian":[1.194E3,8.69E2,3.25E2,3.75E2,4.94E2,2.39E2,8.6E1,1.22E2,2.53E2,4.13E2,8.1E1,1.47E2,9.2E1,4.6E1,4E1],"tree_param":{"num_deleted":"0","num_feature":"20","num_nodes":"15","size_leaf_vector":"1"}},{"base_weights":[1.3314546E-2,3.1216043E-1,-7.220633E-1,5.6065744E-1,-8.0296956E-2,-9.443902E-1,1.8763063E-2,1.6491042E-3,7.29004E-3,-4.7676694E-3,1.2852523E-3,-5.9448243E-3,-1.071151E-2,1.6445052E-3,-1.7464602E-3],"categories":[],"categories_nodes":[],"categories_segments":[],"categories_sizes":[],"default_left":[0,0,0,0,0,0,0,0,0,0,0,0,0,0,0],"id":11,"left_children":[1,3,5,7,9,11,13,-1,-1,-1,-1,-1,-1,-1,-1],"loss_changes":[2.7481995E2,8.804996E1,6.065016E1,3.3878616E1,3.0824038E1,1.157608E0,3.1538098E0,0E0,0E0,0E0,0E0,0E0,0E0,0E0,0E0],"parents":[2147483647,0,0,1,1,2,2,3,3,4,4,5,5,6,6],"right_children":[2,4,6,8,10,12,14,-1,-1,-1,-1,-1,-1,-1,-1],"split_conditions":[-5.6806475E-1,5.9E1,1.5E-1,6E0,9E0,-3.546049E-1,1.361E1,1.6491042E-3,7.29004E-3,-4.7676694E-3,1.2852523E-3,-5.9448243E-3,-1.071151E-2,1.6445052E-3,-1.7464602E-3],"split_indices":[19,0,3,18,18,19,7,0,0,0,0,0,0,0,0],"split_type":[0,0,0,0,0,0,0,0,0,0,0,0,0,0,0],"sum_hessian":[1.222E3,8.76E2,3.46E2,5.34E2,3.42E2,2.64E2,8.2E1,1.7E2,3.64E2,1.13E2,2.29E2,9.5E1,1.69E2,5.1E1,3.1E1],"tree_param":{"num_deleted":"0","num_feature":"20","num_nodes":"15","size_leaf_vector":"1"}},{"base_weights":[-1.7886499E-2,-4.768657E-1,4.2639774E-1,-1.160065E-1,-8.9974827E-1,-1.118047E-2,5.4568404E-1,-2.9080948E-3,2.4440722E-3,-5.1832567E-3,-1.0359586E-2,-3.0738567E-3,2.4338022E-3,6.5364884E-3,3.3409686E-3],"categories":[],"categories_nodes":[],"categories_segments":[],"categories_sizes":[],"default_left":[0,0,0,0,0,0,0,0,0,0,0,0,0,0,0],"id":12,"left_children":[1,3,5,7,9,11,13,-1,-1,-1,-1,-1,-1,-1,-1],"loss_changes":[2.4596591E2,8.80636E1,3.2570656E1,2.2470016E1,4.418762E0,1.2044097E1,6.770157E0,0E0,0E0,0E0,0E0,0E0,0E0,0E0,0E0],"parents":[2147483647,0,0,1,1,2,2,3,3,4,4,5,5,6,6],"right_children":[2,4,6,8,10,12,14,-1,-1,-1,-1,-1,-1,-1,-1],"split_conditions":[1.5E-1,-5.6806475E-1,4.7E1,7.044E1,-3.546049E-1,7.7E0,1.944E1,-2.9080948E-3,2.4440722E-3,-5.1832567E-3,-1.0359586E-2,-3.0738567E-3,2.4338022E-3,6.5364884E-3,3.3409686E-3],"split_indices":[3,19,14,10,19,9,7,0,0,0,0,0,0,0,0],"split_type":[0,0,0,0,0,0,0,0,0,0,0,0,0,0,0],"sum_hessian":[1.176E3,5.79E2,5.97E2,3.24E2,2.55E2,1.29E2,4.68E2,2.22E2,1.02E2,8.8E1,1.67E2,6E1,6.9E1,2.86E2,1.82E2],"tree_param":{"num_deleted":"0","num_feature":"20","num_nodes":"15","size_leaf_vector":"1"}},{"base_weights":[-3.0535946E-3,-4.2454368E-1,4.19598E-1,-5.978235E-1,1.206324E-1,-1.5773334E-1,5.048745E-1,-7.452241E-3,-1.6013562E-3,-2.6044403E-3,2.8313014E-3,-3.7337963E-3,5.9200876E-4,-1.1272101E-3,5.466265E-3],"categories":[],"categories_nodes":[],"categories_segments":[],"categories_sizes":[],"default_left":[0,0,0,0,0,0,0,0,0,0,0,0,0,0,0],"id":13,"left_children":[1,3,5,7,9,11,13,-1,-1,-1,-1,-1,-1,-1,-1],"loss_changes":[2.251782E2,6.1451668E1,3.255835E1,2.8594604E1,1.1284325E1,4.9028215E0,1.5643494E1,0E0,0E0,0E0,0E0,0E0,0E0,0E0,0E0],"parents":[2147483647,0,0,1,1,2,2,3,3,4,4,5,5,6,6],"right_children":[2,4,6,8,10,12,14,-1,-1,-1,-1,-1,-1,-1,-1],"split_conditions":[2E-1,3.836E1,3.2E1,2E0,8.3E1,7.7E0,5.706E1,-7.452241E-3,-1.6013562E-3,-2.6044403E-3,2.8313014E-3,-3.7337963E-3,5.9200876E-4,-1.1272101E-3,5.466265E-3],"split_indices":[3,1,14,15,14,9,10,0,0,0,0,0,0,0,0],"split_type":[0,0,0,0,0,0,0,0,0,0,0,0,0,0,0],"sum_hessian":[1.234E3,6.19E2,6.15E2,4.7E2,1.49E2,7.6E1,5.39E2,3.42E2,1.28E2,4E1,1.09E2,3.5E1,4.1E1,3.1E1,5.08E2],"tree_param":{"num_deleted":"0","num_feature":"20","num_nodes":"15","size_leaf_vector":"1"}},{"base_weights":[2.1840403E-2,3.0393586E-1,-6.7667955E-1,5.687503E-1,-0E0,-4.2225808E-1,-1.08534265E-2,6.6106874E-3,1.8794241E-3,-3.6530753E-3,1.8471632E-3,-2.100662E-3,-7.4278116E-3],"categories":[],"categories_nodes":[],"categories_segments":[],"categories_sizes":[],"default_left":[0,0,0,0,0,0,0,0,0,0,0,0,0],"id":14,"left_children":[1,3,5,7,9,11,-1,-1,-1,-1,-1,-1,-1],"loss_changes":[2.4133897E2,7.000277E1,2.8216354E1,1.366983E1,2.9446716E1,1.3233665E1,0E0,0E0,0E0,0E0,0E0,0E0,0E0],"parents":[2147483647,0,0,1,1,2,2,3,3,4,4,5,5],"right_children":[2,4,6,8,10,12,-1,-1,-1,-1,-1,-1,-1],"split_conditions":[-5.6806475E-1,2.064E1,-2.3931566E-1,8.03E1,9E-1,2.311E1,-1.08534265E-2,6.6106874E-3,1.8794241E-3,-3.6530753E-3,1.8471632E-3,-2.100662E-3,-7.4278116E-3],"split_indices":[19,7,19,4,2,1,0,0,0,0,0,0,0],"split_type":[0,0,0,0,0,0,0,0,0,0,0,0,0],"sum_hessian":[1.196E3,8.59E2,3.37E2,4.51E2,4.08E2,2.28E2,1.09E2,3.52E2,9.9E1,1.31E2,2.77E2,1.54E2,7.4E1],"tree_param":{"num_deleted":"0","num_feature":"20","num_nodes":"13","size_leaf_vector":"1"}},{"base_weights":[-9.628215E-3,-4.669392E-1,4.4273454E-1,-6.7512107E-1,4.7978923E-2,1.0049963E-1,6.0475236E-1,-7.7045523E-3,5.6685036E-5,-3.9062533E-4,2.688038E-3,4.2399224E-3,-1.2793846E-3,6.622783E-3,1.7005309E-3],"categories":[],"categories_nodes":[],"categories_segments":[],"categories_sizes":[],"default_left":[0,0,0,0,0,0,0,0,0,0,0,0,0,0,0],"id":15,"left_children":[1,3,5,7,9,11,13,-1,-1,-1,-1,-1,-1,-1,-1],"loss_changes":[2.6171323E2,6.864688E1,3.3592667E1,3.0101334E1,4.116102E0,1.7662888E1,8.131088E0,0E0,0E0,0E0,0E0,0E0,0E0,0E0,0E0],"parents":[2147483647,0,0,1,1,2,2,3,3,4,4,5,5,6,6],"right_children":[2,4,6,8,10,12,14,-1,-1,-1,-1,-1,-1,-1,-1],"split_conditions":[1.5E-1,3.689E1,6E0,1.576E1,2E0,9E-1,7.243E1,-7.7045523E-3,5.6685036E-5,-3.9062533E-4,2.688038E-3,4.2399224E-3,-1.2793846E-3,6.622783E-3,1.7005309E-3],"split_indices":[3,1,18,8,15,2,1,0,0,0,0,0,0,0,0],"split_type":[0,0,0,0,0,0,0,0,0,0,0,0,0,0,0],"sum_hessian":[1.235E3,6.15E2,6.2E2,4.36E2,1.79E2,2.09E2,4.11E2,3.82E2,5.4E1,1.34E2,4.5E1,8.3E1,1.26E2,3.54E2,5.7E1],"tree_param":{"num_deleted":"0","num_feature":"20","num_nodes":"15","size_leaf_vector":"1"}},{"base_weights":[1.4179507E-2,-4.1243693E-1,4.3156576E-1,-5.367575E-1,4.8557565E-2,5.832773E-2,6.0062605E-1,-6.4680767E-3,-8.9435535E-4,3.8691198E-3,-1.0353173E-3,-1.7208932E-3,2.2110217E-3,6.4098677E-3,-0E0],"categories":[],"categories_nodes":[],"categories_segments":[],"categories_sizes":[],"default_left":[0,0,0,0,0,0,0,0,0,0,0,0,0,0,0],"id":16,"left_children":[1,3,5,7,9,11,13,-1,-1,-1,-1,-1,-1,-1,-1],"loss_changes":[2.1387276E2,3.486464E1,3.7180183E1,2.1533142E1,7.985737E0,8.421003E0,1.0114197E1,0E0,0E0,0E0,0E0,0E0,0E0,0E0,0E0],"parents":[2147483647,0,0,1,1,2,2,3,3,4,4,5,5,6,6],"right_children":[2,4,6,8,10,12,14,-1,-1,-1,-1,-1,-1,-1,-1],"split_conditions":[1.5E-1,1.546E1,6.9E1,9E-1,1.43E0,7.7E0,1.674E1,-6.4680767E-3,-8.9435535E-4,3.8691198E-3,-1.0353173E-3,-1.7208932E-3,2.2110217E-3,6.4098677E-3,-0E0],"split_indices":[3,8,14,2,11,9,8,0,0,0,0,0,0,0,0],"split_type":[0,0,0,0,0,0,0,0,0,0,0,0,0,0,0],"sum_hessian":[1.171E3,5.78E2,5.93E2,4.55E2,1.23E2,1.93E2,4E2,3.58E2,9.7E1,3.3E1,9E1,7.7E1,1.16E2,3.74E2,2.6E1],"tree_param":{"num_deleted":"0","num_feature":"20","num_nodes":"15","size_leaf_vector":"1"}},{"base_weights":[8.431363E-3,2.580182E-1,-7.660468E-1,4.9934468E-1,-1.6248533E-1,-9.1721696E-1,-7.91238E-2,2.221189E-3,6.2902872E-3,-2.8240948E-3,3.5658907E-3,-4.949311E-3,-1.0111791E-2,-2.5541987E-3,1.0151778E-3],"categories":[],"categories_nodes":[],"categories_segments":[],"categories_sizes":[],"default_left":[0,0,0,0,0,0,0,0,0,0,0,0,0,0,0],"id":17,"left_children":[1,3,5,7,9,11,13,-1,-1,-1,-1,-1,-1,-1,-1],"loss_changes":[2.3499614E2,9.511721E1,2.8652359E1,1.8300552E1,2.297473E1,5.098572E-1,2.8039415E0,0E0,0E0,0E0,0E0,0E0,0E0,0E0,0E0],"parents":[2147483647,0,0,1,1,2,2,3,3,4,4,5,5,6,6],"right_children":[2,4,6,8,10,12,14,-1,-1,-1,-1,-1,-1,-1,-1],"split_conditions":[-4.6472317E-1,6.36E1,1.5E-1,6E0,7.263E1,-3.546049E-1,1.66E1,2.221189E-3,6.2902872E-3,-2.8240948E-3,3.5658907E-3,-4.949311E-3,-1.0111791E-2,-2.5541987E-3,1.0151778E-3],"split_indices":[19,0,3,18,10,19,9,0,0,0,0,0,0,0,0],"split_type":[0,0,0,0,0,0,0,0,0,0,0,0,0,0,0],"sum_hessian":[1.188E3,9.07E2,2.81E2,5.76E2,3.31E2,2.25E2,5.6E1,1.99E2,3.77E2,2.76E2,5.5E1,6E1,1.65E2,2.8E1,2.8E1],"tree_param":{"num_deleted":"0","num_feature":"20","num_nodes":"15","size_leaf_vector":"1"}},{"base_weights":[-4.9285364E-4,-4.5016176E-1,4.1900218E-1,-6.883773E-2,-8.8112706E-1,4.5273103E-2,5.781418E-1,-2.0620502E-3,4.261187E-3,-5.075425E-3,-1.0283705E-2,-2.225407E-3,2.0557262E-3,6.3480586E-3,1.5722552E-3],"categories":[],"categories_nodes":[],"categories_segments":[],"categories_sizes":[],"default_left":[0,0,0,0,0,0,0,0,0,0,0,0,0,0,0],"id":18,"left_children":[1,3,5,7,9,11,13,-1,-1,-1,-1,-1,-1,-1,-1],"loss_changes":[2.2978699E2,9.493496E1,3.6393814E1,2.3535074E1,5.7071075E0,9.512923E0,8.157532E0,0E0,0E0,0E0,0E0,0E0,0E0,0E0,0E0],"parents":[2147483647,0,0,1,1,2,2,3,3,4,4,5,5,6,6],"right_children":[2,4,6,8,10,12,14,-1,-1,-1,-1,-1,-1,-1,-1],"split_conditions":[1.5E-1,-5.6806475E-1,6.7E1,8E1,-3.546049E-1,3.1E1,5.5E1,-2.0620502E-3,4.261187E-3,-5.075425E-3,-1.0283705E-2,-2.225407E-3,2.0557262E-3,6.3480586E-3,1.5722552E-3],"split_indices":[3,19,14,12,19,14,0,0,0,0,0,0,0,0,0],"split_type":[0,0,0,0,0,0,0,0,0,0,0,0,0,0,0],"sum_hessian":[1.188E3,5.74E2,6.14E2,3.15E2,2.59E2,1.91E2,4.23E2,2.55E2,6E1,9.4E1,1.65E2,6.7E1,1.24E2,3.64E2,5.9E1],"tree_param":{"num_deleted":"0","num_feature":"20","num_nodes":"15","size_leaf_vector":"1"}},{"base_weights":[1.2333189E-2,-3.9203012E-1,3.848813E-1,-6.0634124E-1,-2.570733E-2,6.979776E-2,5.270991E-1,-7.1548736E-3,-1.6236726E-4,-3.3521364E-3,8.5336354E-4,-1.2966596E-3,2.0385513E-3,6.4008133E-3,2.709387E-3],"categories":[],"categories_nodes":[],"categories_segments":[],"categories_sizes":[],"default_left":[0,0,0,0,0,0,0,0,0,0,0,0,0,0,0],"id":19,"left_children":[1,3,5,7,9,11,13,-1,-1,-1,-1,-1,-1,-1,-1],"loss_changes":[1.8724794E2,4.584584E1,2.7888435E1,2.3118057E1,8.824352E0,6.3801327E0,9.279816E0,0E0,0E0,0E0,0E0,0E0,0E0,0E0,0E0],"parents":[2147483647,0,0,1,1,2,2,3,3,4,4,5,5,6,6],"right_children":[2,4,6,8,10,12,14,-1,-1,-1,-1,-1,-1,-1,-1],"split_conditions":[1.5E-1,3.404E1,6.9E1,3.69E1,1.3E1,7.7E0,1.954E1,-7.1548736E-3,-1.6236726E-4,-3.3521364E-3,8.5336354E-4,-1.2966596E-3,2.0385513E-3,6.4008133E-3,2.709387E-3],"split_indices":[3,1,14,9,16,9,7,0,0,0,0,0,0,0,0],"split_type":[0,0,0,0,0,0,0,0,0,0,0,0,0,0,0],"sum_hessian":[1.213E3,5.8E2,6.33E2,3.58E2,2.22E2,2.06E2,4.27E2,2.98E2,6E1,5.3E1,1.69E2,8E1,1.26E2,2.78E2,1.49E2],"tree_param":{"num_deleted":"0","num_feature":"20","num_nodes":"15","size_leaf_vector":"1"}},{"base_weights":[-2.0323236E-2,1.7129198E-1,-9.698882E-1,3.445069E-1,-4.5487636E-1,-5.8472147E-3,-1.130518E-2,3.4928275E-4,5.0564683E-3,-5.9590307E-3,1.4074653E-3],"categories":[],"categories_nodes":[],"categories_segments":[],"categories_sizes":[],"default_left":[0,0,0,0,0,0,0,0,0,0,0],"id":20,"left_children":[1,3,5,7,9,-1,-1,-1,-1,-1,-1],"loss_changes":[2.2854607E2,1.1525733E2,1.4235992E0,4.039991E1,2.1116947E1,0E0,0E0,0E0,0E0,0E0,0E0],"parents":[2147483647,0,0,1,1,2,2,3,3,4,4],"right_children":[2,4,6,8,10,-1,-1,-1,-1,-1,-1],"split_conditions":[-3.546049E-1,7.74E1,-2.3931566E-1,6.9E1,7.283E1,-5.8472147E-3,-1.130518E-2,3.4928275E-4,5.0564683E-3,-5.9590307E-3,1.4074653E-3],"split_indices":[19,0,19,14,10,0,0,0,0,0,0],"split_type":[0,0,0,0,0,0,0,0,0,0,0],"sum_hessian":[1.223E3,1.027E3,1.96E2,8.11E2,2.16E2,8E1,1.16E2,2.86E2,5.25E2,1.76E2,4E1],"tree_param":{"num_deleted":"0","num_feature":"20","num_nodes":"11","size_leaf_vector":"1"}},{"base_weights":[-3.5145443E-3,2.6284802E-1,-6.208684E-1,4.2209423E-1,-2.3524378E-1,-2.4348532E-1,-9.117004E-3,6.006387E-4,5.65154E-3,-3.9444603E-3,2.4727818E-3,3.6598736E-4,-6.8674865E-3],"categories":[],"categories_nodes":[],"categories_segments":[],"categories_sizes":[],"default_left":[0,0,0,0,0,0,0,0,0,0,0,0,0],"id":21,"left_children":[1,3,5,7,9,11,-1,-1,-1,-1,-1,-1,-1],"loss_changes":[2.0161385E2,6.9414894E1,3.6124405E1,3.2737556E1,1.8126234E1,2.3746794E1,0E0,0E0,0E0,0E0,0E0,0E0,0E0],"parents":[2147483647,0,0,1,1,2,2,3,3,4,4,5,5],"right_children":[2,4,6,8,10,12,-1,-1,-1,-1,-1,-1,-1],"split_conditions":[-5.6806475E-1,7.66E1,-3.546049E-1,6E0,2.9E1,1.1E1,-9.117004E-3,6.006387E-4,5.65154E-3,-3.9444603E-3,2.4727818E-3,3.6598736E-4,-6.8674865E-3],"split_indices":[19,0,19,18,16,16,0,0,0,0,0,0,0],"split_type":[0,0,0,0,0,0,0,0,0,0,0,0,0],"sum_hessian":[1.194E3,8.39E2,3.55E2,6.39E2,2E2,1.68E2,1.87E2,1.89E2,4.5E2,1.54E2,4.6E1,1.1E2,5.8E1],"tree_param":{"num_deleted":"0","num_feature":"20","num_nodes":"13","size_leaf_vector":"1"}},{"base_weights":[1.954011E-2,2.6346868E-1,-7.7123815E-1,5.0227046E-1,-1.358506E-1,-9.114608E-3,-1.01354055E-1,2.7290876E-3,6.0264007E-3,-2.484909E-3,3.4852265E-3,1.6844414E-4,-2.183646E-3],"categories":[],"categories_nodes":[],"categories_segments":[],"categories_sizes":[],"default_left":[0,0,0,0,0,0,0,0,0,0,0,0,0],"id":22,"left_children":[1,3,5,7,9,-1,11,-1,-1,-1,-1,-1,-1],"loss_changes":[2.4076355E2,9.255232E1,2.5217773E1,1.0539108E1,2.1277107E1,0E0,1.2109957E0,0E0,0E0,0E0,0E0,0E0,0E0],"parents":[2147483647,0,0,1,1,2,2,3,3,4,4,6,6],"right_children":[2,4,6,8,10,-1,12,-1,-1,-1,-1,-1,-1],"split_conditions":[-4.6472317E-1,6.09E1,1.5E-1,9E0,7.9E1,-9.114608E-3,1.361E1,2.7290876E-3,6.0264007E-3,-2.484909E-3,3.4852265E-3,1.6844414E-4,-2.183646E-3],"split_indices":[19,0,3,16,12,0,7,0,0,0,0,0,0],"split_type":[0,0,0,0,0,0,0,0,0,0,0,0,0],"sum_hessian":[1.22E3,9.41E2,2.79E2,5.88E2,3.53E2,2.25E2,5.4E1,1.99E2,3.89E2,2.94E2,5.9E1,2.9E1,2.5E1],"tree_param":{"num_deleted":"0","num_feature":"20","num_nodes":"13","size_leaf_vector":"1"}},{"base_weights":[6.817132E-4,2.5520563E-1,-6.4649296E-1,4.6403697E-1,-1.3888592E-1,-2.8067032E-1,-9.280202E-3,1.613102E-3,5.739104E-3,-2.689644E-3,3.746044E-3,-1.9754E-4,-6.5194946E-3],"categories":[],"categories_nodes":[],"categories_segments":[],"categories_sizes":[],"default_left":[0,0,0,0,0,0,0,0,0,0,0,0,0],"id":23,"left_children":[1,3,5,7,9,11,-1,-1,-1,-1,-1,-1,-1],"loss_changes":[2.0683229E2,7.5689865E1,3.1342422E1,1.7700058E1,2.2980164E1,1.6281597E1,0E0,0E0,0E0,0E0,0E0,0E0,0E0],"parents":[2147483647,0,0,1,1,2,2,3,3,4,4,5,5],"right_children":[2,4,6,8,10,12,-1,-1,-1,-1,-1,-1,-1],"split_conditions":[-5.6806475E-1,6.59E1,-3.546049E-1,6E0,7.263E1,1.23E1,-9.280202E-3,1.613102E-3,5.739104E-3,-2.689644E-3,3.746044E-3,-1.9754E-4,-6.5194946E-3],"split_indices":[19,0,19,18,10,0,0,0,0,0,0,0,0],"split_type":[0,0,0,0,0,0,0,0,0,0,0,0,0],"sum_hessian":[1.228E3,8.89E2,3.39E2,5.81E2,3.08E2,1.62E2,1.77E2,1.67E2,4.14E2,2.53E2,5.5E1,1.06E2,5.6E1],"tree_param":{"num_deleted":"0","num_feature":"20","num_nodes":"13","size_leaf_vector":"1"}},{"base_weights":[-1.3017838E-2,1.6032664E-1,-8.634512E-3,4.3710682E-1,-1.2304595E-1,5.880346E-3,1.1815606E-3,6.4148125E-4,-5.73152E-3],"categories":[],"categories_nodes":[],"categories_segments":[],"categories_sizes":[],"default_left":[0,0,0,0,0,0,0,0,0],"id":24,"left_children":[1,3,-1,5,7,-1,-1,-1,-1],"loss_changes":[1.792389E2,8.0023315E1,0E0,2.2994812E1,4.3778896E1,0E0,0E0,0E0,0E0],"parents":[2147483647,0,0,1,1,3,3,4,4],"right_children":[2,4,-1,6,8,-1,-1,-1,-1],"split_conditions":[-3.546049E-1,2.515E1,-8.634512E-3,-6.6312265E-1,-7.485108E-1,5.880346E-3,1.1815606E-3,6.4148125E-4,-5.73152E-3],"split_indices":[19,1,0,19,19,0,0,0,0],"split_type":[0,0,0,0,0,0,0,0,0],"sum_hessian":[1.182E3,9.91E2,1.91E2,4.99E2,4.92E2,3.28E2,1.71E2,3.55E2,1.37E2],"tree_param":{"num_deleted":"0","num_feature":"20","num_nodes":"9","size_leaf_vector":"1"}},{"base_weights":[5.8587813E-3,2.7977577E-1,-6.5144503E-1,5.235518E-1,-6.9385014E-2,-8.416689E-1,-0E0,1.3900787E-4,5.795362E-3,-4.7103795E-3,7.873546E-4,-4.665739E-3,-9.824293E-3,-2.0655303E-3,1.3104313E-3],"categories":[],"categories_nodes":[],"categories_segments":[],"categories_sizes":[],"default_left":[0,0,0,0,0,0,0,0,0,0,0,0,0,0,0],"id":25,"left_children":[1,3,5,7,9,11,13,-1,-1,-1,-1,-1,-1,-1,-1],"loss_changes":[2.248999E2,7.624254E1,4.5439774E1,1.423674E1,2.3258497E1,6.6701355E0,3.0621123E0,0E0,0E0,0E0,0E0,0E0,0E0,0E0,0E0],"parents":[2147483647,0,0,1,1,2,2,3,3,4,4,5,5,6,6],"right_children":[2,4,6,8,10,12,14,-1,-1,-1,-1,-1,-1,-1,-1],"split_conditions":[-5.6806475E-1,5.5E1,1.5E-1,3.1E1,1.3E1,-3.546049E-1,2.4E1,1.3900787E-4,5.795362E-3,-4.7103795E-3,7.873546E-4,-4.665739E-3,-9.824293E-3,-2.0655303E-3,1.3104313E-3],"split_indices":[19,0,3,14,16,19,14,0,0,0,0,0,0,0,0],"split_type":[0,0,0,0,0,0,0,0,0,0,0,0,0,0,0],"sum_hessian":[1.221E3,8.69E2,3.52E2,5.09E2,3.6E2,2.69E2,8.3E1,5.4E1,4.55E2,9E1,2.7E2,9.3E1,1.76E2,2.9E1,5.4E1],"tree_param":{"num_deleted":"0","num_feature":"20","num_nodes":"15","size_leaf_vector":"1"}},{"base_weights":[-9.683679E-3,-4.2720574E-1,3.853662E-1,-7.950816E-2,-8.166959E-1,9.480944E-2,5.293272E-1,1.6002066E-3,-3.4927125E-3,-9.430061E-3,-5.1255855E-3,2.2378622E-3,-3.3420655E-3,5.5855736E-3,2.814266E-4],"categories":[],"categories_nodes":[],"categories_segments":[],"categories_sizes":[],"default_left":[0,0,0,0,0,0,0,0,0,0,0,0,0,0,0],"id":26,"left_children":[1,3,5,7,9,11,13,-1,-1,-1,-1,-1,-1,-1,-1],"loss_changes":[1.974728E2,7.708243E1,2.4306E1,2.2092438E1,1.7433014E0,1.3406057E1,5.1106567E0,0E0,0E0,0E0,0E0,0E0,0E0,0E0,0E0],"parents":[2147483647,0,0,1,1,2,2,3,3,4,4,5,5,6,6],"right_children":[2,4,6,8,10,12,14,-1,-1,-1,-1,-1,-1,-1,-1],"split_conditions":[1.5E-1,-5.6806475E-1,6E0,7.74E1,0E0,4.19E0,2.431E1,1.6002066E-3,-3.4927125E-3,-9.430061E-3,-5.1255855E-3,2.2378622E-3,-3.3420655E-3,5.5855736E-3,2.814266E-4],"split_indices":[3,19,18,0,3,6,6,0,0,0,0,0,0,0,0],"split_type":[0,0,0,0,0,0,0,0,0,0,0,0,0,0,0],"sum_hessian":[1.167E3,5.68E2,5.99E2,3.11E2,2.57E2,2.09E2,3.9E2,1.66E2,1.45E2,1.57E2,1E2,1.68E2,4.1E1,3.65E2,2.5E1],"tree_param":{"num_deleted":"0","num_feature":"20","num_nodes":"15","size_leaf_vector":"1"}},{"base_weights":[2.2354713E-2,2.8259215E-1,-6.2262213E-1,4.4916615E-1,-1.302833E-1,-2.5792822E-1,-8.687438E-3,-2.2083183E-4,5.1389886E-3,-5.3324094E-3,6.126761E-4,-4.0846842E-4,-5.558263E-3],"categories":[],"categories_nodes":[],"categories_segments":[],"categories_sizes":[],"default_left":[0,0,0,0,0,0,0,0,0,0,0,0,0],"id":27,"left_children":[1,3,5,7,9,11,-1,-1,-1,-1,-1,-1,-1],"loss_changes":[2.04555E2,6.103032E1,2.6927917E1,1.9727814E1,2.1030626E1,9.668341E0,0E0,0E0,0E0,0E0,0E0,0E0,0E0],"parents":[2147483647,0,0,1,1,2,2,3,3,4,4,5,5],"right_children":[2,4,6,8,10,12,-1,-1,-1,-1,-1,-1,-1],"split_conditions":[-5.6806475E-1,7.52E1,-3.546049E-1,6.041E1,9E0,2.515E1,-8.687438E-3,-2.2083183E-4,5.1389886E-3,-5.3324094E-3,6.126761E-4,-4.0846842E-4,-5.558263E-3],"split_indices":[19,0,19,10,18,1,0,0,0,0,0,0,0],"split_type":[0,0,0,0,0,0,0,0,0,0,0,0,0],"sum_hessian":[1.19E3,8.55E2,3.35E2,6.1E2,2.45E2,1.49E2,1.86E2,7.3E1,5.37E2,7.2E1,1.73E2,9.8E1,5.1E1],"tree_param":{"num_deleted":"0","num_feature":"20","num_nodes":"13","size_leaf_vector":"1"}},{"base_weights":[-2.3823981E-3,2.2714749E-1,-7.313575E-1,4.1562682E-1,-2.0679615E-1,-8.735063E-3,-5.7802238E-2,-5.5335386E-4,4.7767423E-3,-3.3787661E-3,2.937634E-3,-2.2552633E-3,9.5127925E-4],"categories":[],"categories_nodes":[],"categories_segments":[],"categories_sizes":[],"default_left":[0,0,0,0,0,0,0,0,0,0,0,0,0],"id":28,"left_children":[1,3,5,7,9,-1,11,-1,-1,-1,-1,-1,-1],"loss_changes":[2.031127E2,7.674434E1,2.6173141E1,1.9754662E1,2.0364046E1,0E0,2.1964111E0,0E0,0E0,0E0,0E0,0E0,0E0],"parents":[2147483647,0,0,1,1,2,2,3,3,4,4,6,6],"right_children":[2,4,6,8,10,-1,12,-1,-1,-1,-1,-1,-1],"split_conditions":[-4.6472317E-1,7.54E1,1.5E-1,6.031E1,7.263E1,-8.735063E-3,3E1,-5.5335386E-4,4.7767423E-3,-3.3787661E-3,2.937634E-3,-2.2552633E-3,9.5127925E-4],"split_indices":[19,0,3,10,10,0,14,0,0,0,0,0,0],"split_type":[0,0,0,0,0,0,0,0,0,0,0,0,0],"sum_hessian":[1.181E3,9.05E2,2.76E2,6.33E2,2.72E2,2.23E2,5.3E1,7.2E1,5.61E2,2.21E2,5.1E1,2.5E1,2.8E1],"tree_param":{"num_deleted":"0","num_feature":"20","num_nodes":"13","size_leaf_vector":"1"}},{"base_weights":[-3.4998246E-3,2.6480472E-1,-6.233862E-1,5.08477E-1,-2.7967468E-2,-7.9741985E-1,-4.0756E-2,2.1416368E-3,6.270132E-3,-6.244584E-3,9.4168127E-4,-4.973736E-3,-9.046058E-3,-2.4262897E-3,1.1476299E-3],"categories":[],"categories_nodes":[],"categories_segments":[],"categories_sizes":[],"default_left":[0,0,0,0,0,0,0,0,0,0,0,0,0,0,0],"id":29,"left_children":[1,3,5,7,9,11,13,-1,-1,-1,-1,-1,-1,-1,-1],"loss_changes":[2.0291568E2,6.1261875E1,3.6089935E1,1.3401817E1,3.0407759E1,9.1845703E-1,3.7478368E0,0E0,0E0,0E0,0E0,0E0,0E0,0E0,0E0],"parents":[2147483647,0,0,1,1,2,2,3,3,4,4,5,5,6,6],"right_children":[2,4,6,8,10,12,14,-1,-1,-1,-1,-1,-1,-1,-1],"split_conditions":[-5.6806475E-1,5.15E1,1.5E-1,6E0,6E0,-3.546049E-1,3E1,2.1416368E-3,6.270132E-3,-6.244584E-3,9.4168127E-4,-4.973736E-3,-9.046058E-3,-2.4262897E-3,1.1476299E-3],"split_indices":[19,0,3,18,18,19,14,0,0,0,0,0,0,0,0],"split_type":[0,0,0,0,0,0,0,0,0,0,0,0,0,0,0],"sum_hessian":[1.188E3,8.34E2,3.54E2,4.51E2,3.83E2,2.67E2,8.7E1,1.44E2,3.07E2,5.6E1,3.27E2,9.5E1,1.72E2,3.7E1,5E1],"tree_param":{"num_deleted":"0","num_feature":"20","num_nodes":"15","size_leaf_vector":"1"}},{"base_weights":[-7.3153656E-3,-4.1263288E-1,3.6166558E-1,-8.03692E-2,-7.9228073E-1,3.8770728E-2,5.1751864E-1,-3.4217532E-3,2.0160088E-3,-4.914038E-3,-9.037039E-3,3.721601E-3,-1.5368463E-3,6.3344855E-3,2.196293E-3],"categories":[],"categories_nodes":[],"categories_segments":[],"categories_sizes":[],"default_left":[0,0,0,0,0,0,0,0,0,0,0,0,0,0,0],"id":30,"left_children":[1,3,5,7,9,11,13,-1,-1,-1,-1,-1,-1,-1,-1],"loss_changes":[1.8265216E2,7.171371E1,3.1249542E1,2.546259E1,9.6177673E-1,1.5577147E1,1.18061905E1,0E0,0E0,0E0,0E0,0E0,0E0,0E0,0E0],"parents":[2147483647,0,0,1,1,2,2,3,3,4,4,5,5,6,6],"right_children":[2,4,6,8,10,12,14,-1,-1,-1,-1,-1,-1,-1,-1],"split_conditions":[1.5E-1,-5.6806475E-1,6E0,3.9E1,-3.546049E-1,9E-1,8.02E1,-3.4217532E-3,2.0160088E-3,-4.914038E-3,-9.037039E-3,3.721601E-3,-1.5368463E-3,6.3344855E-3,2.196293E-3],"split_indices":[3,19,18,12,19,2,4,0,0,0,0,0,0,0,0],"split_type":[0,0,0,0,0,0,0,0,0,0,0,0,0,0,0],"sum_hessian":[1.191E3,5.68E2,6.23E2,3.14E2,2.54E2,2.11E2,4.12E2,1.63E2,1.51E2,9.3E1,1.61E2,7.4E1,1.37E2,2.82E2,1.3E2],"tree_param":{"num_deleted":"0","num_feature":"20","num_nodes":"15","size_leaf_vector":"1"}},{"base_weights":[-9.608301E-3,-3.8767925E-1,3.5454592E-1,-5.529309E-1,1.153574E-1,2.3474092E-2,4.7539863E-1,-6.945417E-3,-1.589476E-3,-7.013202E-4,2.3559432E-3,2.1290546E-3,-3.9382437E-3,5.40638E-3,7.4927404E-4],"categories":[],"categories_nodes":[],"categories_segments":[],"categories_sizes":[],"default_left":[0,0,0,0,0,0,0,0,0,0,0,0,0,0,0],"id":31,"left_children":[1,3,5,7,9,11,13,-1,-1,-1,-1,-1,-1,-1,-1],"loss_changes":[1.7116118E2,5.2185318E1,2.4620636E1,2.3378204E1,4.0263367E0,1.5859034E1,1.0794998E1,0E0,0E0,0E0,0E0,0E0,0E0,0E0,0E0],"parents":[2147483647,0,0,1,1,2,2,3,3,4,4,5,5,6,6],"right_children":[2,4,6,8,10,12,14,-1,-1,-1,-1,-1,-1,-1,-1],"split_conditions":[1.5E-1,3.781E1,5E0,2E0,2.3E1,1.81E1,5.5E1,-6.945417E-3,-1.589476E-3,-7.013202E-4,2.3559432E-3,2.1290546E-3,-3.9382437E-3,5.40638E-3,7.4927404E-4],"split_indices":[3,1,18,15,12,7,0,0,0,0,0,0,0,0,0],"split_type":[0,0,0,0,0,0,0,0,0,0,0,0,0,0,0],"sum_hessian":[1.213E3,5.96E2,6.17E2,4.49E2,1.47E2,1.72E2,4.45E2,3.2E2,1.29E2,5.7E1,9E1,1.25E2,4.7E1,3.76E2,6.9E1],"tree_param":{"num_deleted":"0","num_feature":"20","num_nodes":"15","size_leaf_vector":"1"}},{"base_weights":[8.6687255E-4,-3.9194942E-1,3.740813E-1,-6.2245905E-1,-8.05135E-2,-2.1880619E-1,4.5449296E-1,-7.2570536E-3,-3.6204074E-4,5.086997E-4,-3.1805881E-3,4.8087825E-4,-3.6107176E-3,5.192155E-3,-4.870989E-4],"categories":[],"categories_nodes":[],"categories_segments":[],"categories_sizes":[],"default_left":[0,0,0,0,0,0,0,0,0,0,0,0,0,0,0],"id":32,"left_children":[1,3,5,7,9,11,13,-1,-1,-1,-1,-1,-1,-1,-1],"loss_changes":[1.8001297E2,4.1403305E1,3.1810326E1,1.936319E1,9.030086E0,3.7628965E0,1.915342E1,0E0,0E0,0E0,0E0,0E0,0E0,0E0,0E0],"parents":[2147483647,0,0,1,1,2,2,3,3,4,4,5,5,6,6],"right_children":[2,4,6,8,10,12,14,-1,-1,-1,-1,-1,-1,-1,-1],"split_conditions":[2E-1,3.274E1,3.1E1,3.69E1,8.31E1,9E-1,2.236E1,-7.2570536E-3,-3.6204074E-4,5.086997E-4,-3.1805881E-3,4.8087825E-4,-3.6107176E-3,5.192155E-3,-4.870989E-4],"split_indices":[3,1,14,9,4,2,7,0,0,0,0,0,0,0,0],"split_type":[0,0,0,0,0,0,0,0,0,0,0,0,0,0,0],"sum_hessian":[1.198E3,5.82E2,6.16E2,3.24E2,2.58E2,6.9E1,5.47E2,2.71E2,5.3E1,1.71E2,8.7E1,2.5E1,4.4E1,4.86E2,6.1E1],"tree_param":{"num_deleted":"0","num_feature":"20","num_nodes":"15","size_leaf_vector":"1"}},{"base_weights":[1.8612968E-2,-3.912311E-1,3.8707197E-1,-5.6378406E-1,2.8161092E-2,5.843441E-2,5.4084915E-1,-6.4301984E-3,1.1780022E-3,-3.6159323E-3,1.3295547E-3,3.402295E-3,-1.1545531E-3,5.9065926E-3,1.5331982E-3],"categories":[],"categories_nodes":[],"categories_segments":[],"categories_sizes":[],"default_left":[0,0,0,0,0,0,0,0,0,0,0,0,0,0,0],"id":33,"left_children":[1,3,5,7,9,11,13,-1,-1,-1,-1,-1,-1,-1,-1],"loss_changes":[1.8785956E2,4.332579E1,3.2078896E1,2.4289917E1,8.007807E0,1.1986284E1,6.4487915E0,0E0,0E0,0E0,0E0,0E0,0E0,0E0,0E0],"parents":[2147483647,0,0,1,1,2,2,3,3,4,4,5,5,6,6],"right_children":[2,4,6,8,10,12,14,-1,-1,-1,-1,-1,-1,-1,-1],"split_conditions":[1.5E-1,3.689E1,6E0,1.62E1,6E0,9E-1,7.905E1,-6.4301984E-3,1.1780022E-3,-3.6159323E-3,1.3295547E-3,3.402295E-3,-1.1545531E-3,5.9065926E-3,1.5331982E-3],"split_indices":[3,1,18,8,18,2,1,0,0,0,0,0,0,0,0],"split_type":[0,0,0,0,0,0,0,0,0,0,0,0,0,0,0],"sum_hessian":[1.214E3,5.73E2,6.41E2,4.04E2,1.69E2,2.13E2,4.28E2,3.64E2,4E1,2.6E1,1.43E2,7.8E1,1.35E2,3.7E2,5.8E1],"tree_param":{"num_deleted":"0","num_feature":"20","num_nodes":"15","size_leaf_vector":"1"}},{"base_weights":[-2.9157648E-2,-4.2311698E-1,3.248928E-1,-8.8802345E-2,-8.028788E-1,-2.046187E-3,4.8963353E-1,2.2457365E-3,-3.087044E-3,-4.9614864E-3,-9.123844E-3,1.1180463E-3,-3.6967595E-3,6.031214E-3,2.4337342E-3],"categories":[],"categories_nodes":[],"categories_segments":[],"categories_sizes":[],"default_left":[0,0,0,0,0,0,0,0,0,0,0,0,0,0,0],"id":34,"left_children":[1,3,5,7,9,11,13,-1,-1,-1,-1,-1,-1,-1,-1],"loss_changes":[1.6870111E2,7.0786896E1,3.475769E1,2.3382616E1,7.0228577E-1,1.0337063E1,8.829445E0,0E0,0E0,0E0,0E0,0E0,0E0,0E0,0E0],"parents":[2147483647,0,0,1,1,2,2,3,3,4,4,5,5,6,6],"right_children":[2,4,6,8,10,12,14,-1,-1,-1,-1,-1,-1,-1,-1],"split_conditions":[2E-1,-5.6806475E-1,6E0,7.66E1,-3.546049E-1,4.19E0,1.954E1,2.2457365E-3,-3.087044E-3,-4.9614864E-3,-9.123844E-3,1.1180463E-3,-3.6967595E-3,6.031214E-3,2.4337342E-3],"split_indices":[3,19,18,0,19,6,7,0,0,0,0,0,0,0,0],"split_type":[0,0,0,0,0,0,0,0,0,0,0,0,0,0,0],"sum_hessian":[1.179E3,5.58E2,6.21E2,3.08E2,2.5E2,2.11E2,4.1E2,1.25E2,1.83E2,9E1,1.6E2,1.67E2,4.4E1,2.63E2,1.47E2],"tree_param":{"num_deleted":"0","num_feature":"20","num_nodes":"15","size_leaf_vector":"1"}},{"base_weights":[6.218302E-3,2.1122028E-1,-6.2707067E-1,4.8246858E-1,-1.2987487E-2,-7.5352997E-1,-6.8765126E-2,1.1028745E-3,5.322982E-3,1.0580827E-3,-4.4800313E-3,-3.5898362E-3,-8.389096E-3,-1.9337841E-3,5.656355E-4],"categories":[],"categories_nodes":[],"categories_segments":[],"categories_sizes":[],"default_left":[0,0,0,0,0,0,0,0,0,0,0,0,0,0,0],"id":35,"left_children":[1,3,5,7,9,11,13,-1,-1,-1,-1,-1,-1,-1,-1],"loss_changes":[1.5840009E2,5.681825E1,1.9440132E1,6.2845535E0,2.7874123E1,2.3694763E0,1.4409736E0,0E0,0E0,0E0,0E0,0E0,0E0,0E0,0E0],"parents":[2147483647,0,0,1,1,2,2,3,3,4,4,5,5,6,6],"right_children":[2,4,6,8,10,12,14,-1,-1,-1,-1,-1,-1,-1,-1],"split_conditions":[-4.6472317E-1,1.944E1,1.5E-1,5E0,-7.485108E-1,-3.546049E-1,2.05E1,1.1028745E-3,5.322982E-3,1.0580827E-3,-4.4800313E-3,-3.5898362E-3,-8.389096E-3,-1.9337841E-3,5.656355E-4],"split_indices":[19,7,3,16,19,19,4,0,0,0,0,0,0,0,0],"split_type":[0,0,0,0,0,0,0,0,0,0,0,0,0,0,0],"sum_hessian":[1.193E3,9.1E2,2.83E2,4.06E2,5.04E2,2.25E2,5.8E1,5.6E1,3.5E2,4.03E2,1.01E2,5.6E1,1.69E2,2.9E1,2.9E1],"tree_param":{"num_deleted":"0","num_feature":"20","num_nodes":"15","size_leaf_vector":"1"}},{"base_weights":[4.263812E-3,2.3997444E-1,-5.5384433E-1,4.9071082E-1,-5.103252E-2,-3.2660395E-1,-9.418905E-3,2.2909958E-3,5.851482E-3,-3.6508744E-3,9.2686486E-4,-9.4582594E-4,-5.97453E-3],"categories":[],"categories_nodes":[],"categories_segments":[],"categories_sizes":[],"default_left":[0,0,0,0,0,0,0,0,0,0,0,0,0],"id":36,"left_children":[1,3,5,7,9,11,-1,-1,-1,-1,-1,-1,-1],"loss_changes":[1.5927908E2,6.3128307E1,2.5773674E1,8.589012E0,1.9150198E1,1.423387E1,0E0,0E0,0E0,0E0,0E0,0E0,0E0],"parents":[2147483647,0,0,1,1,2,2,3,3,4,4,5,5],"right_children":[2,4,6,8,10,12,-1,-1,-1,-1,-1,-1,-1],"split_conditions":[-5.6806475E-1,5.15E1,-2.3931566E-1,9E0,1.07E2,1.431E1,-9.418905E-3,2.2909958E-3,5.851482E-3,-3.6508744E-3,9.2686486E-4,-9.4582594E-4,-5.97453E-3],"split_indices":[19,0,19,16,14,7,0,0,0,0,0,0,0],"split_type":[0,0,0,0,0,0,0,0,0,0,0,0,0],"sum_hessian":[1.183E3,8.39E2,3.44E2,4.47E2,3.92E2,2.36E2,1.08E2,1.35E2,3.12E2,1.18E2,2.74E2,1.4E2,9.6E1],"tree_param":{"num_deleted":"0","num_feature":"20","num_nodes":"13","size_leaf_vector":"1"}},{"base_weights":[-1.6999334E-2,2.012697E-1,-5.661067E-1,4.9748018E-1,-4.3419883E-2,-7.3720044E-1,-0E0,5.656202E-3,1.2871256E-3,-6.229731E-3,7.13739E-4,-3.9580003E-3,-8.747092E-3,-2.1048393E-3,1.1104101E-3],"categories":[],"categories_nodes":[],"categories_segments":[],"categories_sizes":[],"default_left":[0,0,0,0,0,0,0,0,0,0,0,0,0,0,0],"id":37,"left_children":[1,3,5,7,9,11,13,-1,-1,-1,-1,-1,-1,-1,-1],"loss_changes":[1.4481902E2,6.3255497E1,3.2687164E1,8.088867E0,3.3418648E1,5.8830414E0,2.6795502E0,0E0,0E0,0E0,0E0,0E0,0E0,0E0,0E0],"parents":[2147483647,0,0,1,1,2,2,3,3,4,4,5,5,6,6],"right_children":[2,4,6,8,10,12,14,-1,-1,-1,-1,-1,-1,-1,-1],"split_conditions":[-5.6806475E-1,1.967E1,1.5E-1,-6.6312265E-1,5E0,-3.546049E-1,2.4E1,5.656202E-3,1.2871256E-3,-6.229731E-3,7.13739E-4,-3.9580003E-3,-8.747092E-3,-2.1048393E-3,1.1104101E-3],"split_indices":[19,7,3,19,18,19,14,0,0,0,0,0,0,0,0],"split_type":[0,0,0,0,0,0,0,0,0,0,0,0,0,0,0],"sum_hessian":[1.176E3,8.47E2,3.29E2,3.78E2,4.69E2,2.48E2,8.1E1,3.1E2,6.8E1,6.8E1,4.01E2,9E1,1.58E2,2.6E1,5.5E1],"tree_param":{"num_deleted":"0","num_feature":"20","num_nodes":"15","size_leaf_vector":"1"}},{"base_weights":[-5.005701E-3,1.6056845E-1,-8.1274295E-3,3.3027884E-1,-3.098685E-1,4.4269479E-4,4.8457193E-3,-4.1004323E-4,-5.1681083E-3],"categories":[],"categories_nodes":[],"categories_segments":[],"categories_sizes":[],"default_left":[0,0,0,0,0,0,0,0,0],"id":38,"left_children":[1,3,-1,5,7,-1,-1,-1,-1],"loss_changes":[1.641681E2,8.251134E1,0E0,3.242286E1,1.4425138E1,0E0,0E0,0E0,0E0],"parents":[2147483647,0,0,1,1,3,3,4,4],"right_children":[2,4,-1,6,8,-1,-1,-1,-1],"split_conditions":[-3.546049E-1,7.66E1,-8.1274295E-3,6E0,-7.485108E-1,4.4269479E-4,4.8457193E-3,-4.1004323E-4,-5.1681083E-3],"split_indices":[19,0,0,18,19,0,0,0,0],"split_type":[0,0,0,0,0,0,0,0,0],"sum_hessian":[1.193E3,9.99E2,1.94E2,7.39E2,2.6E2,2.68E2,4.71E2,1.23E2,1.37E2],"tree_param":{"num_deleted":"0","num_feature":"20","num_nodes":"9","size_leaf_vector":"1"}},{"base_weights":[4.301673E-3,1.6415669E-1,-7.996983E-1,-1.6709998E-1,3.4081995E-1,-4.5606476E-1,-9.381467E-3,1.3670264E-3,-4.2154E-3,7.7415904E-4,4.911264E-3,-1.5300205E-3,-6.5891193E-3],"categories":[],"categories_nodes":[],"categories_segments":[],"categories_sizes":[],"default_left":[0,0,0,0,0,0,0,0,0,0,0,0,0],"id":39,"left_children":[1,3,5,7,9,11,-1,-1,-1,-1,-1,-1,-1],"loss_changes":[1.6134526E2,6.2591953E1,2.0836487E0,3.0059258E1,2.6297928E1,3.2701263E0,0E0,0E0,0E0,0E0,0E0,0E0,0E0],"parents":[2147483647,0,0,1,1,2,2,3,3,4,4,5,5],"right_children":[2,4,6,8,10,12,-1,-1,-1,-1,-1,-1,-1],"split_conditions":[-3.546049E-1,-1.14E0,-2.3931566E-1,-4.46E0,6E0,1.333E1,-9.381467E-3,1.3670264E-3,-4.2154E-3,7.7415904E-4,4.911264E-3,-1.5300205E-3,-6.5891193E-3],"split_indices":[19,3,19,3,18,7,0,0,0,0,0,0,0],"split_type":[0,0,0,0,0,0,0,0,0,0,0,0,0],"sum_hessian":[1.23E3,1.037E3,1.93E2,3.59E2,6.78E2,7.6E1,1.17E2,1.65E2,1.94E2,2.57E2,4.21E2,4.3E1,3.3E1],"tree_param":{"num_deleted":"0","num_feature":"20","num_nodes":"13","size_leaf_vector":"1"}},{"base_weights":[1.4920489E-2,-3.2936752E-1,3.5189408E-1,-3.322718E-2,-7.0001185E-1,4.430336E-1,1.1489183E-1,2.5038605E-3,-2.1200997E-3,-3.7746134E-3,-8.464281E-3,1.1939434E-3,5.4188566E-3,-8.091339E-4,1.5750796E-3],"categories":[],"categories_nodes":[],"categories_segments":[],"categories_sizes":[],"default_left":[0,0,0,0,0,0,0,0,0,0,0,0,0,0,0],"id":40,"left_children":[1,3,5,7,9,11,13,-1,-1,-1,-1,-1,-1,-1,-1],"loss_changes":[1.4828923E2,6.817816E1,1.2653931E1,1.9417393E1,7.1127167E0,1.3052765E1,1.9616885E0,0E0,0E0,0E0,0E0,0E0,0E0,0E0,0E0],"parents":[2147483647,0,0,1,1,2,2,3,3,4,4,5,5,6,6],"right_children":[2,4,6,8,10,12,14,-1,-1,-1,-1,-1,-1,-1,-1],"split_conditions":[2E-1,-5.6806475E-1,8.02E1,7.66E1,-3.546049E-1,2.49E0,1.6E0,2.5038605E-3,-2.1200997E-3,-3.7746134E-3,-8.464281E-3,1.1939434E-3,5.4188566E-3,-8.091339E-4,1.5750796E-3],"split_indices":[3,19,4,0,19,1,2,0,0,0,0,0,0,0,0],"split_type":[0,0,0,0,0,0,0,0,0,0,0,0,0,0,0],"sum_hessian":[1.248E3,6.16E2,6.32E2,3.53E2,2.63E2,4.44E2,1.88E2,1.32E2,2.21E2,1.01E2,1.62E2,1.14E2,3.3E2,2.7E1,1.61E2],"tree_param":{"num_deleted":"0","num_feature":"20","num_nodes":"15","size_leaf_vector":"1"}},{"base_weights":[-0E0,-3.316651E-1,3.1460667E-1,-4.4295555E-1,1.5999287E-1,-5.548531E-3,4.7119838E-1,-5.560405E-3,4.2474352E-5,-1.2303633E-3,3.4524598E-3,2.0599863E-3,-1.5158156E-3,5.0807106E-3,1.3069519E-4],"categories":[],"categories_nodes":[],"categories_segments":[],"categories_sizes":[],"default_left":[0,0,0,0,0,0,0,0,0,0,0,0,0,0,0],"id":41,"left_children":[1,3,5,7,9,11,13,-1,-1,-1,-1,-1,-1,-1,-1],"loss_changes":[1.2749881E2,3.38478E1,3.1988811E1,2.5367477E1,7.098789E0,7.179507E0,6.541649E0,0E0,0E0,0E0,0E0,0E0,0E0,0E0,0E0],"parents":[2147483647,0,0,1,1,2,2,3,3,4,4,5,5,6,6],"right_children":[2,4,6,8,10,12,14,-1,-1,-1,-1,-1,-1,-1,-1],"split_conditions":[2E-1,1.576E1,6E0,3.781E1,2.1E2,9E-1,1.649E1,-5.560405E-3,4.2474352E-5,-1.2303633E-3,3.4524598E-3,2.0599863E-3,-1.5158156E-3,5.0807106E-3,1.3069519E-4],"split_indices":[3,8,18,1,14,2,8,0,0,0,0,0,0,0,0],"split_type":[0,0,0,0,0,0,0,0,0,0,0,0,0,0,0],"sum_hessian":[1.192E3,5.79E2,6.13E2,4.75E2,1.04E2,2.04E2,4.09E2,3.78E2,9.7E1,4.1E1,6.3E1,7.8E1,1.26E2,3.75E2,3.4E1],"tree_param":{"num_deleted":"0","num_feature":"20","num_nodes":"15","size_leaf_vector":"1"}},{"base_weights":[-8.492806E-3,2.2510913E-1,-5.8475435E-1,4.4380286E-1,-8.177463E-2,-7.607996E-1,4.2910393E-2,5.408977E-3,1.0785362E-3,-4.243417E-3,1.1088502E-3,-4.5274645E-3,-8.746653E-3,2.1108638E-3,-5.324948E-4],"categories":[],"categories_nodes":[],"categories_segments":[],"categories_sizes":[],"default_left":[0,0,0,0,0,0,0,0,0,0,0,0,0,0,0],"id":42,"left_children":[1,3,5,7,9,11,13,-1,-1,-1,-1,-1,-1,-1,-1],"loss_changes":[1.7248854E2,6.191263E1,4.2091614E1,1.5927322E1,2.6692808E1,2.9398956E0,1.8465877E0,0E0,0E0,0E0,0E0,0E0,0E0,0E0,0E0],"parents":[2147483647,0,0,1,1,2,2,3,3,4,4,5,5,6,6],"right_children":[2,4,6,8,10,12,14,-1,-1,-1,-1,-1,-1,-1,-1],"split_conditions":[-5.6806475E-1,5.5E1,1.5E-1,8.02E1,1.6E1,-3.546049E-1,0E0,5.408977E-3,1.0785362E-3,-4.243417E-3,1.1088502E-3,-4.5274645E-3,-8.746653E-3,2.1108638E-3,-5.324948E-4],"split_indices":[19,0,3,4,16,19,5,0,0,0,0,0,0,0,0],"split_type":[0,0,0,0,0,0,0,0,0,0,0,0,0,0,0],"sum_hessian":[1.249E3,8.94E2,3.55E2,5.2E2,3.74E2,2.76E2,7.9E1,3.94E2,1.26E2,1.3E2,2.44E2,9.7E1,1.79E2,2.6E1,5.3E1],"tree_param":{"num_deleted":"0","num_feature":"20","num_nodes":"15","size_leaf_vector":"1"}},{"base_weights":[1.8466871E-2,1.826461E-1,-7.7618905E-3,3.5217938E-1,-2.1543641E-1,8.1435015E-4,5.0405436E-3,-5.419646E-3,-5.864698E-4],"categories":[],"categories_nodes":[],"categories_segments":[],"categories_sizes":[],"default_left":[0,0,0,0,0,0,0,0,0],"id":43,"left_children":[1,3,-1,5,7,-1,-1,-1,-1],"loss_changes":[1.5939685E2,6.984288E1,0E0,2.8404686E1,1.484463E1,0E0,0E0,0E0,0E0],"parents":[2147483647,0,0,1,1,3,3,4,4],"right_children":[2,4,-1,6,8,-1,-1,-1,-1],"split_conditions":[-3.546049E-1,7.52E1,-7.7618905E-3,6E0,9E0,8.1435015E-4,5.0405436E-3,-5.419646E-3,-5.864698E-4],"split_indices":[19,0,0,18,18,0,0,0,0],"split_type":[0,0,0,0,0,0,0,0,0],"sum_hessian":[1.195E3,1.001E3,1.94E2,7.05E2,2.96E2,2.64E2,4.41E2,8.2E1,2.14E2],"tree_param":{"num_deleted":"0","num_feature":"20","num_nodes":"9","size_leaf_vector":"1"}},{"base_weights":[-1.5399344E-2,1.4433415E-1,-7.838892E-1,-1.8675749E-1,3.1751528E-1,-4.5331007E-1,-9.156596E-3,3.487472E-4,-4.484031E-3,8.913953E-4,4.48419E-3,-1.4666123E-3,-6.3945106E-3],"categories":[],"categories_nodes":[],"categories_segments":[],"categories_sizes":[],"default_left":[0,0,0,0,0,0,0,0,0,0,0,0,0],"id":44,"left_children":[1,3,5,7,9,11,-1,-1,-1,-1,-1,-1,-1],"loss_changes":[1.5541037E2,6.0881973E1,1.901062E0,2.1872112E1,1.9580261E1,3.172659E0,0E0,0E0,0E0,0E0,0E0,0E0,0E0],"parents":[2147483647,0,0,1,1,2,2,3,3,4,4,5,5],"right_children":[2,4,6,8,10,12,-1,-1,-1,-1,-1,-1,-1],"split_conditions":[-3.546049E-1,-1.14E0,-2.3931566E-1,-7.485108E-1,6E0,1.333E1,-9.156596E-3,3.487472E-4,-4.484031E-3,8.913953E-4,4.48419E-3,-1.4666123E-3,-6.3945106E-3],"split_indices":[19,3,19,19,18,7,0,0,0,0,0,0,0],"split_type":[0,0,0,0,0,0,0,0,0,0,0,0,0],"sum_hessian":[1.232E3,1.029E3,2.03E2,3.51E2,6.78E2,7.9E1,1.24E2,1.95E2,1.56E2,2.59E2,4.19E2,4.2E1,3.7E1],"tree_param":{"num_deleted":"0","num_feature":"20","num_nodes":"13","size_leaf_vector":"1"}},{"base_weights":[-1.5396723E-2,1.3568489E-1,-7.84137E-1,3.232521E-1,-1.4172107E-1,-4.621669E-1,-9.123325E-3,4.3258397E-3,-6.3593936E-4,9.813673E-4,-4.845929E-3,-1.9586228E-3,-6.1006197E-3],"categories":[],"categories_nodes":[],"categories_segments":[],"categories_sizes":[],"default_left":[0,0,0,0,0,0,0,0,0,0,0,0,0],"id":45,"left_children":[1,3,5,7,9,11,-1,-1,-1,-1,-1,-1,-1],"loss_changes":[1.448674E2,5.487819E1,7.621536E-1,2.7258064E1,3.6216488E1,9.858017E-1,0E0,0E0,0E0,0E0,0E0,0E0,0E0],"parents":[2147483647,0,0,1,1,2,2,3,3,4,4,5,5],"right_children":[2,4,6,8,10,12,-1,-1,-1,-1,-1,-1,-1],"split_conditions":[-3.546049E-1,2.083E1,-2.3931566E-1,-5.6806475E-1,-8.85456E-1,1.333E1,-9.123325E-3,4.3258397E-3,-6.3593936E-4,9.813673E-4,-4.845929E-3,-1.9586228E-3,-6.1006197E-3],"split_indices":[19,7,19,19,19,7,0,0,0,0,0,0,0],"split_type":[0,0,0,0,0,0,0,0,0,0,0,0,0],"sum_hessian":[1.213E3,1.023E3,1.9E2,6.11E2,4.12E2,7.6E1,1.14E2,4.77E2,1.34E2,2.47E2,1.65E2,4.2E1,3.4E1],"tree_param":{"num_deleted":"0","num_feature":"20","num_nodes":"13","size_leaf_vector":"1"}},{"base_weights":[5.2905953E-3,2.297092E-1,-5.1769835E-1,4.1745692E-1,-3.9659336E-2,-2.0248435E-1,-7.506445E-3,1.1356185E-3,5.541278E-3,-3.6128748E-3,1.2902571E-3,-0E0,-5.3367135E-3],"categories":[],"categories_nodes":[],"categories_segments":[],"categories_sizes":[],"default_left":[0,0,0,0,0,0,0,0,0,0,0,0,0],"id":46,"left_children":[1,3,5,7,9,11,-1,-1,-1,-1,-1,-1,-1],"loss_changes":[1.4797165E2,4.5383537E1,2.4522705E1,2.0193535E1,2.1276691E1,1.2433376E1,0E0,0E0,0E0,0E0,0E0,0E0,0E0],"parents":[2147483647,0,0,1,1,2,2,3,3,4,4,5,5],"right_children":[2,4,6,8,10,12,-1,-1,-1,-1,-1,-1,-1],"split_conditions":[-5.6806475E-1,5.5E1,-3.546049E-1,6E0,9E0,2.515E1,-7.506445E-3,1.1356185E-3,5.541278E-3,-3.6128748E-3,1.2902571E-3,-0E0,-5.3367135E-3],"split_indices":[19,0,19,18,18,1,0,0,0,0,0,0,0],"split_type":[0,0,0,0,0,0,0,0,0,0,0,0,0],"sum_hessian":[1.233E3,8.7E2,3.63E2,5.1E2,3.6E2,1.68E2,1.95E2,1.69E2,3.41E2,1.2E2,2.4E2,1.13E2,5.5E1],"tree_param":{"num_deleted":"0","num_feature":"20","num_nodes":"13","size_leaf_vector":"1"}},{"base_weights":[-2.2565208E-3,2.0363209E-1,-5.289591E-1,4.3048567E-1,-6.6540904E-2,-6.748096E-1,-0E0,-0E0,4.5519113E-3,-3.4565786E-3,1.184479E-3,-4.128455E-3,-7.948789E-3,-2.002921E-3,1.1115563E-3],"categories":[],"categories_nodes":[],"categories_segments":[],"categories_sizes":[],"default_left":[0,0,0,0,0,0,0,0,0,0,0,0,0,0,0],"id":47,"left_children":[1,3,5,7,9,11,13,-1,-1,-1,-1,-1,-1,-1,-1],"loss_changes":[1.3369814E2,5.4912422E1,2.6314903E1,4.9960556E0,2.2217619E1,2.3938446E0,2.4201446E0,0E0,0E0,0E0,0E0,0E0,0E0,0E0,0E0],"parents":[2147483647,0,0,1,1,2,2,3,3,4,4,5,5,6,6],"right_children":[2,4,6,8,10,12,14,-1,-1,-1,-1,-1,-1,-1,-1],"split_conditions":[-5.6806475E-1,2.091E1,1.5E-1,6.041E1,9E0,-3.546049E-1,3E1,-0E0,4.5519113E-3,-3.4565786E-3,1.184479E-3,-4.128455E-3,-7.948789E-3,-2.002921E-3,1.1115563E-3],"split_indices":[19,7,3,10,18,19,14,0,0,0,0,0,0,0,0],"split_type":[0,0,0,0,0,0,0,0,0,0,0,0,0,0,0],"sum_hessian":[1.2E3,8.68E2,3.32E2,4.69E2,3.99E2,2.56E2,7.6E1,2.7E1,4.42E2,1.56E2,2.43E2,1.04E2,1.52E2,2.5E1,5.1E1],"tree_param":{"num_deleted":"0","num_feature":"20","num_nodes":"15","size_leaf_vector":"1"}},{"base_weights":[1.0151636E-2,1.6449985E-1,-7.3623788E-3,2.9598013E-1,-3.2420492E-1,2.8571498E-4,4.246192E-3,-4.6162717E-3,2.2577185E-3],"categories":[],"categories_nodes":[],"categories_segments":[],"categories_sizes":[],"default_left":[0,0,0,0,0,0,0,0,0],"id":48,"left_children":[1,3,-1,5,7,-1,-1,-1,-1],"loss_changes":[1.4133284E2,6.701555E1,0E0,2.7365776E1,1.857774E1,0E0,0E0,0E0,0E0],"parents":[2147483647,0,0,1,1,3,3,4,4],"right_children":[2,4,-1,6,8,-1,-1,-1,-1],"split_conditions":[-3.546049E-1,7.73E1,-7.3623788E-3,6E0,7.283E1,2.8571498E-4,4.246192E-3,-4.6162717E-3,2.2577185E-3],"split_indices":[19,0,0,18,10,0,0,0,0],"split_type":[0,0,0,0,0,0,0,0,0],"sum_hessian":[1.201E3,1.006E3,1.95E2,7.99E2,2.07E2,2.68E2,5.31E2,1.69E2,3.8E1],"tree_param":{"num_deleted":"0","num_feature":"20","num_nodes":"9","size_leaf_vector":"1"}},{"base_weights":[-1.920732E-2,-3.627129E-1,3.1698483E-1,-4.882199E-1,8.1252456E-2,1.6004993E-2,4.6371606E-1,1.0798092E-3,-5.3877393E-3,-1.4342784E-3,2.600424E-3,1.1270611E-3,-4.339973E-3,5.6959977E-3,1.8021498E-3],"categories":[],"categories_nodes":[],"categories_segments":[],"categories_sizes":[],"default_left":[0,0,0,0,0,0,0,0,0,0,0,0,0,0,0],"id":49,"left_children":[1,3,5,7,9,11,13,-1,-1,-1,-1,-1,-1,-1,-1],"loss_changes":[1.4058197E2,3.460163E1,2.6525127E1,1.5589996E1,6.460637E0,9.942366E0,1.0017883E1,0E0,0E0,0E0,0E0,0E0,0E0,0E0,0E0],"parents":[2147483647,0,0,1,1,2,2,3,3,4,4,5,5,6,6],"right_children":[2,4,6,8,10,12,14,-1,-1,-1,-1,-1,-1,-1,-1],"split_conditions":[2E-1,1.533E1,6E0,1.01E0,2.3E1,4.3E1,8.02E1,1.0798092E-3,-5.3877393E-3,-1.4342784E-3,2.600424E-3,1.1270611E-3,-4.339973E-3,5.6959977E-3,1.8021498E-3],"split_indices":[3,8,18,11,16,0,4,0,0,0,0,0,0,0,0],"split_type":[0,0,0,0,0,0,0,0,0,0,0,0,0,0,0],"sum_hessian":[1.187E3,5.88E2,5.99E2,4.59E2,1.29E2,2.04E2,3.95E2,3.3E1,4.26E2,5.6E1,7.3E1,1.79E2,2.5E1,2.74E2,1.21E2],"tree_param":{"num_deleted":"0","num_feature":"20","num_nodes":"15","size_leaf_vector":"1"}},{"base_weights":[-2.191897E-2,1.8984172E-1,-5.380751E-1,4.6255165E-1,-3.822892E-2,-6.840777E-1,-1.6876563E-2,2.4112815E-3,5.4814885E-3,-4.897787E-3,6.415424E-4,-4.122919E-3,-7.885366E-3,-2.2136671E-3,1.1843118E-3],"categories":[],"categories_nodes":[],"categories_segments":[],"categories_sizes":[],"default_left":[0,0,0,0,0,0,0,0,0,0,0,0,0,0,0],"id":50,"left_children":[1,3,5,7,9,11,13,-1,-1,-1,-1,-1,-1,-1,-1],"loss_changes":[1.3402606E2,5.461448E1,2.6292274E1,4.7714996E0,2.3272795E1,1.7867126E0,3.1247513E0,0E0,0E0,0E0,0E0,0E0,0E0,0E0,0E0],"parents":[2147483647,0,0,1,1,2,2,3,3,4,4,5,5,6,6],"right_children":[2,4,6,8,10,12,14,-1,-1,-1,-1,-1,-1,-1,-1],"split_conditions":[-5.6806475E-1,1.949E1,2E-1,6E0,6E0,-3.546049E-1,5.9E1,2.4112815E-3,5.4814885E-3,-4.897787E-3,6.415424E-4,-4.122919E-3,-7.885366E-3,-2.2136671E-3,1.1843118E-3],"split_indices":[19,7,3,18,18,19,12,0,0,0,0,0,0,0,0],"split_type":[0,0,0,0,0,0,0,0,0,0,0,0,0,0,0],"sum_hessian":[1.194E3,8.52E2,3.42E2,3.83E2,4.69E2,2.62E2,8E1,1.26E2,2.57E2,7.8E1,3.91E2,9.6E1,1.66E2,3.1E1,4.9E1],"tree_param":{"num_deleted":"0","num_feature":"20","num_nodes":"15","size_leaf_vector":"1"}},{"base_weights":[-7.388367E-3,1.8199478E-1,-6.129724E-1,3.0983058E-1,-3.1639543E-1,-2.3252134E-1,-7.557839E-3,4.381311E-3,8.999889E-4,-4.5811255E-3,2.9185594E-3,-4.6232826E-4,-4.9756006E-3],"categories":[],"categories_nodes":[],"categories_segments":[],"categories_sizes":[],"default_left":[0,0,0,0,0,0,0,0,0,0,0,0,0],"id":51,"left_children":[1,3,5,7,9,11,-1,-1,-1,-1,-1,-1,-1],"loss_changes":[1.4523424E2,6.2691208E1,1.2784157E1,2.0710701E1,1.958413E1,4.344763E0,0E0,0E0,0E0,0E0,0E0,0E0,0E0],"parents":[2147483647,0,0,1,1,2,2,3,3,4,4,5,5],"right_children":[2,4,6,8,10,12,-1,-1,-1,-1,-1,-1,-1],"split_conditions":[-4.6472317E-1,7.74E1,-3.546049E-1,7.89E1,7.289E1,1.1E1,-7.557839E-3,4.381311E-3,8.999889E-4,-4.5811255E-3,2.9185594E-3,-4.6232826E-4,-4.9756006E-3],"split_indices":[19,0,19,4,10,16,0,0,0,0,0,0,0],"split_type":[0,0,0,0,0,0,0,0,0,0,0,0,0],"sum_hessian":[1.233E3,9.46E2,2.87E2,7.59E2,1.87E2,9.1E1,1.96E2,4.67E2,2.92E2,1.56E2,3.1E1,6.6E1,2.5E1],"tree_param":{"num_deleted":"0","num_feature":"20","num_nodes":"13","size_leaf_vector":"1"}},{"base_weights":[-8.090268E-3,1.9399816E-1,-5.271076E-1,4.0361843E-1,-5.44409E-2,-3.3197066E-1,-8.602949E-3,4.748724E-3,1.4787632E-3,-4.750099E-3,9.3177427E-4,-8.46441E-4,-5.8536897E-3],"categories":[],"categories_nodes":[],"categories_segments":[],"categories_sizes":[],"default_left":[0,0,0,0,0,0,0,0,0,0,0,0,0],"id":52,"left_children":[1,3,5,7,9,11,-1,-1,-1,-1,-1,-1,-1],"loss_changes":[1.27836754E2,4.6194824E1,1.6759697E1,7.03434E0,2.6562136E1,1.3753424E1,0E0,0E0,0E0,0E0,0E0,0E0,0E0],"parents":[2147483647,0,0,1,1,2,2,3,3,4,4,5,5],"right_children":[2,4,6,8,10,12,-1,-1,-1,-1,-1,-1,-1],"split_conditions":[-5.6806475E-1,5.15E1,-2.3931566E-1,8.02E1,8.3E1,1.424E1,-8.602949E-3,4.748724E-3,1.4787632E-3,-4.750099E-3,9.3177427E-4,-8.46441E-4,-5.8536897E-3],"split_indices":[19,0,19,4,14,7,0,0,0,0,0,0,0],"split_type":[0,0,0,0,0,0,0,0,0,0,0,0,0],"sum_hessian":[1.186E3,8.59E2,3.27E2,4.63E2,3.96E2,2.27E2,1E2,3.49E2,1.14E2,9.6E1,3E2,1.27E2,1E2],"tree_param":{"num_deleted":"0","num_feature":"20","num_nodes":"13","size_leaf_vector":"1"}},{"base_weights":[-1.2398767E-2,1.3930506E-1,-5.2325916E-1,-3.100507E-1,3.5711122E-1,-6.9706575E-3,-3.0721274E-1,-5.8703837E-3,-9.898501E-4,4.8488188E-3,1.4332235E-3,-4.042151E-3,-2.8018633E-4],"categories":[],"categories_nodes":[],"categories_segments":[],"categories_sizes":[],"default_left":[0,0,0,0,0,0,0,0,0,0,0,0,0],"id":53,"left_children":[1,3,5,7,9,-1,11,-1,-1,-1,-1,-1,-1],"loss_changes":[9.602669E1,9.478459E1,6.447792E0,1.6974995E1,1.6057434E1,0E0,3.6227522E0,0E0,0E0,0E0,0E0,0E0,0E0],"parents":[2147483647,0,0,1,1,2,2,3,3,4,4,6,6],"right_children":[2,4,6,8,10,-1,12,-1,-1,-1,-1,-1,-1],"split_conditions":[7.74E1,4.7E1,3.207E1,2E0,7.89E1,-6.9706575E-3,4.9E1,-5.8703837E-3,-9.898501E-4,4.8488188E-3,1.4332235E-3,-4.042151E-3,-2.8018633E-4],"split_indices":[0,14,1,16,4,0,12,0,0,0,0,0,0],"split_type":[0,0,0,0,0,0,0,0,0,0,0,0,0],"sum_hessian":[1.205E3,9.36E2,2.69E2,3.02E2,6.34E2,1.28E2,1.41E2,1.17E2,1.85E2,3.82E2,2.52E2,9.7E1,4.4E1],"tree_param":{"num_deleted":"0","num_feature":"20","num_nodes":"13","size_leaf_vector":"1"}},{"base_weights":[-0E0,-3.1105962E-1,2.9481387E-1,-1.8018416E-1,-7.2184986E-1,2.2217592E-2,4.2283463E-1,-4.329387E-3,2.9753282E-4,-8.407051E-3,-2.1850057E-3,-3.4145045E-3,1.2525694E-3,4.5339135E-3,1.9179257E-4],"categories":[],"categories_nodes":[],"categories_segments":[],"categories_sizes":[],"default_left":[0,0,0,0,0,0,0,0,0,0,0,0,0,0,0],"id":54,"left_children":[1,3,5,7,9,11,13,-1,-1,-1,-1,-1,-1,-1,-1],"loss_changes":[1.1635863E2,3.0264587E1,2.2202412E1,2.654404E1,4.680626E0,8.931514E0,4.8364563E0,0E0,0E0,0E0,0E0,0E0,0E0,0E0,0E0],"parents":[2147483647,0,0,1,1,2,2,3,3,4,4,5,5,6,6],"right_children":[2,4,6,8,10,12,14,-1,-1,-1,-1,-1,-1,-1,-1],"split_conditions":[1.5E-1,7.86E1,6E0,5E0,7.304E1,6.031E1,1.68E1,-4.329387E-3,2.9753282E-4,-8.407051E-3,-2.1850057E-3,-3.4145045E-3,1.2525694E-3,4.5339135E-3,1.9179257E-4],"split_indices":[3,0,18,18,10,10,5,0,0,0,0,0,0,0,0],"split_type":[0,0,0,0,0,0,0,0,0,0,0,0,0,0,0],"sum_hessian":[1.239E3,6.01E2,6.38E2,4.74E2,1.27E2,2.12E2,4.26E2,2.1E2,2.64E2,9.3E1,3.4E1,3.7E1,1.75E2,3.92E2,3.4E1],"tree_param":{"num_deleted":"0","num_feature":"20","num_nodes":"15","size_leaf_vector":"1"}},{"base_weights":[-1.1054411E-2,1.7323688E-1,-5.7531613E-1,3.2739437E-1,-2.4756628E-1,-3.3148828E-1,-8.659039E-3,2.4159664E-4,4.5731277E-3,-3.530952E-3,2.3347922E-3,-4.1308044E-4,-4.989807E-3],"categories":[],"categories_nodes":[],"categories_segments":[],"categories_sizes":[],"default_left":[0,0,0,0,0,0,0,0,0,0,0,0,0],"id":55,"left_children":[1,3,5,7,9,11,-1,-1,-1,-1,-1,-1,-1],"loss_changes":[1.3333856E2,6.3765373E1,1.6886726E1,2.7441978E1,1.4808739E1,8.773928E0,0E0,0E0,0E0,0E0,0E0,0E0,0E0],"parents":[2147483647,0,0,1,1,2,2,3,3,4,4,5,5],"right_children":[2,4,6,8,10,12,-1,-1,-1,-1,-1,-1,-1],"split_conditions":[-4.6472317E-1,7.65E1,-2.3931566E-1,6E0,7.263E1,7.27E0,-8.659039E-3,2.4159664E-4,4.5731277E-3,-3.530952E-3,2.3347922E-3,-4.1308044E-4,-4.989807E-3],"split_indices":[19,0,19,18,10,8,0,0,0,0,0,0,0],"split_type":[0,0,0,0,0,0,0,0,0,0,0,0,0],"sum_hessian":[1.249E3,9.48E2,3.01E2,6.98E2,2.5E2,1.83E2,1.18E2,2.17E2,4.81E2,2.1E2,4E1,7.6E1,1.07E2],"tree_param":{"num_deleted":"0","num_feature":"20","num_nodes":"13","size_leaf_vector":"1"}},{"base_weights":[-7.868547E-3,-2.9989147E-1,2.6655886E-1,-4.2300725E-1,4.006394E-2,4.7157984E-3,3.786389E-1,-5.1582945E-3,1.2838709E-3,-2.7867123E-3,1.3939248E-3,-2.4110207E-3,1.700152E-3,4.612365E-3,1.3639176E-3],"categories":[],"categories_nodes":[],"categories_segments":[],"categories_sizes":[],"default_left":[0,0,0,0,0,0,0,0,0,0,0,0,0,0,0],"id":56,"left_children":[1,3,5,7,9,11,13,-1,-1,-1,-1,-1,-1,-1,-1],"loss_changes":[9.836101E1,2.5582062E1,1.8108059E1,2.395192E1,5.825506E0,8.954923E0,7.242695E0,0E0,0E0,0E0,0E0,0E0,0E0,0E0,0E0],"parents":[2147483647,0,0,1,1,2,2,3,3,4,4,5,5,6,6],"right_children":[2,4,6,8,10,12,14,-1,-1,-1,-1,-1,-1,-1,-1],"split_conditions":[2E-1,3.781E1,6.9E1,4.08E1,6.9E1,7.7E0,8.02E1,-5.1582945E-3,1.2838709E-3,-2.7867123E-3,1.3939248E-3,-2.4110207E-3,1.700152E-3,4.612365E-3,1.3639176E-3],"split_indices":[3,1,14,9,14,9,4,0,0,0,0,0,0,0,0],"split_type":[0,0,0,0,0,0,0,0,0,0,0,0,0,0,0],"sum_hessian":[1.197E3,5.81E2,6.16E2,4.26E2,1.55E2,1.92E2,4.24E2,3.67E2,5.9E1,2.8E1,1.27E2,7.2E1,1.2E2,3.03E2,1.21E2],"tree_param":{"num_deleted":"0","num_feature":"20","num_nodes":"15","size_leaf_vector":"1"}},{"base_weights":[-3.4317285E-2,1.364979E-1,-5.621481E-1,2.942577E-1,-3.0107304E-1,-3.5821593E-1,-7.672276E-3,3.9465097E-3,6.1660743E-4,-4.357049E-3,9.2118105E-4,-4.381097E-3,-0E0],"categories":[],"categories_nodes":[],"categories_segments":[],"categories_sizes":[],"default_left":[0,0,0,0,0,0,0,0,0,0,0,0,0],"id":57,"left_children":[1,3,5,7,9,11,-1,-1,-1,-1,-1,-1,-1],"loss_changes":[1.0986062E2,6.469263E1,7.215103E0,1.5150879E1,1.4126705E1,5.5017166E0,0E0,0E0,0E0,0E0,0E0,0E0,0E0],"parents":[2147483647,0,0,1,1,2,2,3,3,4,4,5,5],"right_children":[2,4,6,8,10,12,-1,-1,-1,-1,-1,-1,-1],"split_conditions":[-4.6472317E-1,7.66E1,-2.3931566E-1,8.03E1,5.4E1,2.77E0,-7.672276E-3,3.9465097E-3,6.1660743E-4,-4.357049E-3,9.2118105E-4,-4.381097E-3,-0E0],"split_indices":[19,0,19,4,12,11,0,0,0,0,0,0,0],"split_type":[0,0,0,0,0,0,0,0,0,0,0,0,0],"sum_hessian":[1.186E3,9.03E2,2.83E2,6.69E2,2.34E2,1.65E2,1.18E2,4.57E2,2.12E2,1.75E2,5.9E1,1.34E2,3.1E1],"tree_param":{"num_deleted":"0","num_feature":"20","num_nodes":"13","size_leaf_vector":"1"}},{"base_weights":[-3.952202E-3,1.6268583E-1,-5.443205E-1,4.12089E-1,-5.4034803E-2,-3.1575412E-1,-7.8689E-3,5.5033265E-4,4.6911067E-3,6.289615E-4,-4.851483E-3,-4.3167354E-4,-4.706934E-3],"categories":[],"categories_nodes":[],"categories_segments":[],"categories_sizes":[],"default_left":[0,0,0,0,0,0,0,0,0,0,0,0,0],"id":58,"left_children":[1,3,5,7,9,11,-1,-1,-1,-1,-1,-1,-1],"loss_changes":[1.1102568E2,5.1391716E1,1.1304375E1,8.046967E0,2.6740553E1,6.656849E0,0E0,0E0,0E0,0E0,0E0,0E0,0E0],"parents":[2147483647,0,0,1,1,2,2,3,3,4,4,5,5],"right_children":[2,4,6,8,10,12,-1,-1,-1,-1,-1,-1,-1],"split_conditions":[-4.6472317E-1,1.954E1,-2.3931566E-1,5E0,-7.485108E-1,7.27E0,-7.8689E-3,5.5033265E-4,4.6911067E-3,6.289615E-4,-4.851483E-3,-4.3167354E-4,-4.706934E-3],"split_indices":[19,7,19,16,19,8,0,0,0,0,0,0,0],"split_type":[0,0,0,0,0,0,0,0,0,0,0,0,0],"sum_hessian":[1.199E3,9.23E2,2.76E2,4.25E2,4.98E2,1.62E2,1.14E2,6.5E1,3.6E2,4E2,9.8E1,6.8E1,9.4E1],"tree_param":{"num_deleted":"0","num_feature":"20","num_nodes":"13","size_leaf_vector":"1"}},{"base_weights":[-1.2800927E-2,1.8931732E-1,-4.955766E-1,3.9669693E-1,-8.873956E-2,-6.3428977E-3,-0E0,1.239274E-3,4.796181E-3,-3.9426116E-3,1.1717908E-3,-1.0921322E-3,1.0314414E-3],"categories":[],"categories_nodes":[],"categories_segments":[],"categories_sizes":[],"default_left":[0,0,0,0,0,0,0,0,0,0,0,0,0],"id":59,"left_children":[1,3,5,7,9,-1,11,-1,-1,-1,-1,-1,-1],"loss_changes":[1.2153908E2,5.1291412E1,2.5489792E1,9.949791E0,2.512851E1,0E0,1.2372769E0,0E0,0E0,0E0,0E0,0E0,0E0],"parents":[2147483647,0,0,1,1,2,2,3,3,4,4,6,6],"right_children":[2,4,6,8,10,-1,12,-1,-1,-1,-1,-1,-1],"split_conditions":[-5.6806475E-1,5.5E1,2E-1,8E0,1.7E1,-6.3428977E-3,1E0,1.239274E-3,4.796181E-3,-3.9426116E-3,1.1717908E-3,-1.0921322E-3,1.0314414E-3],"split_indices":[19,0,3,16,16,0,13,0,0,0,0,0,0],"split_type":[0,0,0,0,0,0,0,0,0,0,0,0,0],"sum_hessian":[1.213E3,8.6E2,3.53E2,4.91E2,3.69E2,2.73E2,8E1,1.26E2,3.65E2,1.45E2,2.24E2,3.7E1,4.3E1],"tree_param":{"num_deleted":"0","num_feature":"20","num_nodes":"13","size_leaf_vector":"1"}},{"base_weights":[-7.0530497E-3,2.0152056E-1,-4.960904E-1,4.2232323E-1,1.07492935E-2,-6.5606413E-3,3.0183654E-2,1.7518331E-3,5.0301743E-3,-4.901253E-3,9.5776323E-4,-1.2441453E-3,1.8881656E-3],"categories":[],"categories_nodes":[],"categories_segments":[],"categories_sizes":[],"default_left":[0,0,0,0,0,0,0,0,0,0,0,0,0],"id":60,"left_children":[1,3,5,7,9,-1,11,-1,-1,-1,-1,-1,-1],"loss_changes":[1.2878452E2,3.6651142E1,3.274675E1,6.0967484E0,2.1220438E1,0E0,2.8937352E0,0E0,0E0,0E0,0E0,0E0,0E0],"parents":[2147483647,0,0,1,1,2,2,3,3,4,4,6,6],"right_children":[2,4,6,8,10,-1,12,-1,-1,-1,-1,-1,-1],"split_conditions":[-5.6806475E-1,1.954E1,1.5E-1,6.7E1,5E0,-6.5606413E-3,4E1,1.7518331E-3,5.0301743E-3,-4.901253E-3,9.5776323E-4,-1.2441453E-3,1.8881656E-3],"split_indices":[19,7,3,14,18,0,14,0,0,0,0,0,0],"split_type":[0,0,0,0,0,0,0,0,0,0,0,0,0],"sum_hessian":[1.23E3,8.67E2,3.63E2,3.91E2,4.76E2,2.77E2,8.6E1,1.11E2,2.8E2,5.7E1,4.19E2,4.2E1,4.4E1],"tree_param":{"num_deleted":"0","num_feature":"20","num_nodes":"13","size_leaf_vector":"1"}},{"base_weights":[-8.263952E-3,1.8610902E-1,-4.9365574E-1,3.8368928E-1,-9.1268584E-2,-6.582116E-1,-0E0,1.2249581E-3,4.9201725E-3,-3.6681616E-3,7.4215315E-4,-7.6097455E-3,-3.919715E-3,9.4133377E-4,-1.8654767E-3],"categories":[],"categories_nodes":[],"categories_segments":[],"categories_sizes":[],"default_left":[0,0,0,0,0,0,0,0,0,0,0,0,0,0,0],"id":61,"left_children":[1,3,5,7,9,11,13,-1,-1,-1,-1,-1,-1,-1,-1],"loss_changes":[1.17638176E2,4.9429153E1,2.8676285E1,1.3279495E1,1.7982855E1,1.6778564E0,2.152767E0,0E0,0E0,0E0,0E0,0E0,0E0,0E0,0E0],"parents":[2147483647,0,0,1,1,2,2,3,3,4,4,5,5,6,6],"right_children":[2,4,6,8,10,12,14,-1,-1,-1,-1,-1,-1,-1,-1],"split_conditions":[-5.6806475E-1,5.5E1,2E-1,6E0,1.6E1,0E0,1.414E1,1.2249581E-3,4.9201725E-3,-3.6681616E-3,7.4215315E-4,-7.6097455E-3,-3.919715E-3,9.4133377E-4,-1.8654767E-3],"split_indices":[19,0,3,18,16,3,7,0,0,0,0,0,0,0,0],"split_type":[0,0,0,0,0,0,0,0,0,0,0,0,0,0,0],"sum_hessian":[1.214E3,8.72E2,3.42E2,5.08E2,3.64E2,2.52E2,9E1,1.61E2,3.47E2,1.32E2,2.32E2,1.59E2,9.3E1,6.3E1,2.7E1],"tree_param":{"num_deleted":"0","num_feature":"20","num_nodes":"15","size_leaf_vector":"1"}},{"base_weights":[-3.675133E-3,1.6354135E-1,-5.8261675E-1,3.835033E-1,-1.0314044E-1,-3.7222588E-1,-8.013328E-3,4.163525E-3,-7.044253E-4,-5.600877E-3,-5.219826E-5,-1.0563185E-3,-5.462144E-3],"categories":[],"categories_nodes":[],"categories_segments":[],"categories_sizes":[],"default_left":[0,0,0,0,0,0,0,0,0,0,0,0,0],"id":62,"left_children":[1,3,5,7,9,11,-1,-1,-1,-1,-1,-1,-1],"loss_changes":[1.1821222E2,5.618992E1,6.9606323E0,8.569778E0,1.8899466E1,6.368021E0,0E0,0E0,0E0,0E0,0E0,0E0,0E0],"parents":[2147483647,0,0,1,1,2,2,3,3,4,4,5,5],"right_children":[2,4,6,8,10,12,-1,-1,-1,-1,-1,-1,-1],"split_conditions":[-4.6472317E-1,5.15E1,-2.3931566E-1,1.85E1,6E0,1.316E1,-8.013328E-3,4.163525E-3,-7.044253E-4,-5.600877E-3,-5.219826E-5,-1.0563185E-3,-5.462144E-3],"split_indices":[19,0,19,5,18,7,0,0,0,0,0,0,0],"split_type":[0,0,0,0,0,0,0,0,0,0,0,0,0],"sum_hessian":[1.187E3,9.28E2,2.59E2,5.07E2,4.21E2,1.55E2,1.04E2,4.76E2,3.1E1,6E1,3.61E2,7.3E1,8.2E1],"tree_param":{"num_deleted":"0","num_feature":"20","num_nodes":"13","size_leaf_vector":"1"}},{"base_weights":[-2.4695586E-2,1.2633498E-1,-5.109268E-1,-2.7775776E-1,3.3140266E-1,-6.3532007E-1,2.373217E-2,-5.476065E-3,-7.4525765E-4,3.946936E-3,4.5968458E-4,-7.1239057E-3,-2.3717193E-3,-1.5176473E-3,2.328792E-3],"categories":[],"categories_nodes":[],"categories_segments":[],"categories_sizes":[],"default_left":[0,0,0,0,0,0,0,0,0,0,0,0,0,0,0],"id":63,"left_children":[1,3,5,7,9,11,13,-1,-1,-1,-1,-1,-1,-1,-1],"loss_changes":[9.1972565E1,8.032317E1,2.0590637E1,1.6699005E1,1.0849045E1,3.9726257E0,3.1438785E0,0E0,0E0,0E0,0E0,0E0,0E0,0E0,0E0],"parents":[2147483647,0,0,1,1,2,2,3,3,4,4,5,5,6,6],"right_children":[2,4,6,8,10,12,14,-1,-1,-1,-1,-1,-1,-1,-1],"split_conditions":[7.74E1,4.7E1,1.604E1,2E0,8.23E1,3.64E0,3.2E1,-5.476065E-3,-7.4525765E-4,3.946936E-3,4.5968458E-4,-7.1239057E-3,-2.3717193E-3,-1.5176473E-3,2.328792E-3],"split_indices":[0,14,8,16,4,6,16,0,0,0,0,0,0,0,0],"split_type":[0,0,0,0,0,0,0,0,0,0,0,0,0,0,0],"sum_hessian":[1.219E3,9.37E2,2.82E2,3.12E2,6.25E2,2.28E2,5.4E1,1.21E2,1.91E2,5.04E2,1.21E2,1.79E2,4.9E1,2.9E1,2.5E1],"tree_param":{"num_deleted":"0","num_feature":"20","num_nodes":"15","size_leaf_vector":"1"}},{"base_weights":[-1.1820701E-2,-2.9005542E-1,2.4808773E-1,-3.958535E-1,6.499141E-2,4.5267767E-3,3.7051353E-1,-4.56506E-3,1.5154813E-3,-2.886034E-3,1.8793447E-3,1.1464225E-3,-3.212962E-3,4.06302E-3,1.1470356E-3],"categories":[],"categories_nodes":[],"categories_segments":[],"categories_sizes":[],"default_left":[0,0,0,0,0,0,0,0,0,0,0,0,0,0,0],"id":64,"left_children":[1,3,5,7,9,11,13,-1,-1,-1,-1,-1,-1,-1,-1],"loss_changes":[8.934632E1,2.3179611E1,1.859396E1,1.6781311E1,7.1467695E0,8.633711E0,2.6342087E0,0E0,0E0,0E0,0E0,0E0,0E0,0E0,0E0],"parents":[2147483647,0,0,1,1,2,2,3,3,4,4,5,5,6,6],"right_children":[2,4,6,8,10,12,14,-1,-1,-1,-1,-1,-1,-1,-1],"split_conditions":[1.5E-1,3.867E1,6E0,1.653E1,6.9E1,4.87E0,7.243E1,-4.56506E-3,1.5154813E-3,-2.886034E-3,1.8793447E-3,1.1464225E-3,-3.212962E-3,4.06302E-3,1.1470356E-3],"split_indices":[3,1,18,8,14,6,1,0,0,0,0,0,0,0,0],"split_type":[0,0,0,0,0,0,0,0,0,0,0,0,0,0,0],"sum_hessian":[1.205E3,5.83E2,6.22E2,4.5E2,1.33E2,2.16E2,4.06E2,4.09E2,4.1E1,2.7E1,1.06E2,1.71E2,4.5E1,3.45E2,6.1E1],"tree_param":{"num_deleted":"0","num_feature":"20","num_nodes":"15","size_leaf_vector":"1"}},{"base_weights":[-1.841849E-2,1.4151475E-1,-5.45548E-1,2.809898E-1,-2.3594609E-1,-6.4911954E-3,-9.2010394E-2,5.4903486E-4,3.7075623E-3,-3.4452744E-3,2.4849488E-3,-2.1331431E-3,5.6317425E-4],"categories":[],"categories_nodes":[],"categories_segments":[],"categories_sizes":[],"default_left":[0,0,0,0,0,0,0,0,0,0,0,0,0],"id":65,"left_children":[1,3,5,7,9,-1,11,-1,-1,-1,-1,-1,-1],"loss_changes":[1.0458345E2,5.0948284E1,1.19383545E1,1.34957695E1,1.5161764E1,0E0,1.650667E0,0E0,0E0,0E0,0E0,0E0,0E0],"parents":[2147483647,0,0,1,1,2,2,3,3,4,4,6,6],"right_children":[2,4,6,8,10,-1,12,-1,-1,-1,-1,-1,-1],"split_conditions":[-4.6472317E-1,7.65E1,1.5E-1,6.9E1,7.309E1,-6.4911954E-3,3E1,5.4903486E-4,3.7075623E-3,-3.4452744E-3,2.4849488E-3,-2.1331431E-3,5.6317425E-4],"split_indices":[19,0,3,14,10,0,14,0,0,0,0,0,0],"split_type":[0,0,0,0,0,0,0,0,0,0,0,0,0],"sum_hessian":[1.207E3,9.33E2,2.74E2,6.86E2,2.47E2,2.16E2,5.8E1,2.05E2,4.81E2,2.07E2,4E1,3.2E1,2.6E1],"tree_param":{"num_deleted":"0","num_feature":"20","num_nodes":"13","size_leaf_vector":"1"}},{"base_weights":[1.9467873E-2,2.6051128E-1,-3.5920104E-1,4.6623108E-1,9.248007E-2,-5.6231475E-1,8.460713E-2,7.597709E-4,5.1133535E-3,-4.258507E-3,1.9096703E-3,-6.750855E-3,-2.9622645E-3,-6.7111553E-4,1.3662226E-3],"categories":[],"categories_nodes":[],"categories_segments":[],"categories_sizes":[],"default_left":[0,0,0,0,0,0,0,0,0,0,0,0,0,0,0],"id":66,"left_children":[1,3,5,7,9,11,13,-1,-1,-1,-1,-1,-1,-1,-1],"loss_changes":[1.1120082E2,2.4581768E1,4.3829227E1,4.6210403E0,2.3038061E1,5.8713074E0,1.4697115E0,0E0,0E0,0E0,0E0,0E0,0E0,0E0,0E0],"parents":[2147483647,0,0,1,1,2,2,3,3,4,4,5,5,6,6],"right_children":[2,4,6,8,10,12,14,-1,-1,-1,-1,-1,-1,-1,-1],"split_conditions":[-6.6312265E-1,1.954E1,2E-1,3.2E1,5E0,-1.14E0,1.66E0,7.597709E-4,5.1133535E-3,-4.258507E-3,1.9096703E-3,-6.750855E-3,-2.9622645E-3,-6.7111553E-4,1.3662226E-3],"split_indices":[19,7,3,14,18,3,1,0,0,0,0,0,0,0,0],"split_type":[0,0,0,0,0,0,0,0,0,0,0,0,0,0,0],"sum_hessian":[1.189E3,7.31E2,4.58E2,3.14E2,4.17E2,3.13E2,1.45E2,3.9E1,2.75E2,5.7E1,3.6E2,2.01E2,1.12E2,3.1E1,1.14E2],"tree_param":{"num_deleted":"0","num_feature":"20","num_nodes":"15","size_leaf_vector":"1"}},{"base_weights":[8.639957E-3,1.3809398E-1,-6.733347E-1,-1.2925804E-1,2.7800268E-1,-7.3354077E-3,-2.3888887E-3,7.41574E-4,-3.8615875E-3,7.1909104E-4,3.936217E-3],"categories":[],"categories_nodes":[],"categories_segments":[],"categories_sizes":[],"default_left":[0,0,0,0,0,0,0,0,0,0,0],"id":67,"left_children":[1,3,5,7,9,-1,-1,-1,-1,-1,-1],"loss_changes":[1.0803674E2,3.93644E1,1.4995193E0,1.9711048E1,1.5456131E1,0E0,0E0,0E0,0E0,0E0,0E0],"parents":[2147483647,0,0,1,1,2,2,3,3,4,4],"right_children":[2,4,6,8,10,-1,-1,-1,-1,-1,-1],"split_conditions":[-3.546049E-1,-1.14E0,2E0,-7.485108E-1,6E0,-7.3354077E-3,-2.3888887E-3,7.41574E-4,-3.8615875E-3,7.1909104E-4,3.936217E-3],"split_indices":[19,3,15,19,18,0,0,0,0,0,0],"split_type":[0,0,0,0,0,0,0,0,0,0,0],"sum_hessian":[1.199E3,1.019E3,1.8E2,3.48E2,6.71E2,1.47E2,3.3E1,1.98E2,1.5E2,2.53E2,4.18E2],"tree_param":{"num_deleted":"0","num_feature":"20","num_nodes":"11","size_leaf_vector":"1"}},{"base_weights":[-2.2135613E-2,1.7699605E-1,-4.9763948E-1,3.3841464E-1,-5.0310932E-2,-2.3516817E-1,-6.7864377E-3,1.9362055E-3,5.0908765E-3,-5.435798E-3,5.003195E-4,-2.7207634E-4,-5.8252476E-3],"categories":[],"categories_nodes":[],"categories_segments":[],"categories_sizes":[],"default_left":[0,0,0,0,0,0,0,0,0,0,0,0,0],"id":68,"left_children":[1,3,5,7,9,11,-1,-1,-1,-1,-1,-1,-1],"loss_changes":[1.1763449E2,3.257523E1,1.4127853E1,1.0545658E1,1.936351E1,1.1793915E1,0E0,0E0,0E0,0E0,0E0,0E0,0E0],"parents":[2147483647,0,0,1,1,2,2,3,3,4,4,5,5],"right_children":[2,4,6,8,10,12,-1,-1,-1,-1,-1,-1,-1],"split_conditions":[-5.6806475E-1,5.5E1,-3.546049E-1,1.3E1,6E0,1.849E1,-6.7864377E-3,1.9362055E-3,5.0908765E-3,-5.435798E-3,5.003195E-4,-2.7207634E-4,-5.8252476E-3],"split_indices":[19,0,19,16,18,7,0,0,0,0,0,0,0],"split_type":[0,0,0,0,0,0,0,0,0,0,0,0,0],"sum_hessian":[1.21E3,8.58E2,3.52E2,5E2,3.58E2,1.6E2,1.92E2,2.91E2,2.09E2,5.1E1,3.07E2,1.12E2,4.8E1],"tree_param":{"num_deleted":"0","num_feature":"20","num_nodes":"13","size_leaf_vector":"1"}},{"base_weights":[-4.448619E-3,1.5733793E-1,-5.283837E-1,3.9862436E-1,-3.2397136E-2,-6.440125E-3,-2.1211362E-2,4.7306893E-3,1.5221132E-3,-3.5452333E-3,9.6774835E-4,-1.5902265E-3,1.2013745E-3],"categories":[],"categories_nodes":[],"categories_segments":[],"categories_sizes":[],"default_left":[0,0,0,0,0,0,0,0,0,0,0,0,0],"id":69,"left_children":[1,3,5,7,9,-1,11,-1,-1,-1,-1,-1,-1],"loss_changes":[1.07998955E2,4.492124E1,1.6781654E1,6.1825943E0,2.382414E1,0E0,1.7474546E0,0E0,0E0,0E0,0E0,0E0,0E0],"parents":[2147483647,0,0,1,1,2,2,3,3,4,4,6,6],"right_children":[2,4,6,8,10,-1,12,-1,-1,-1,-1,-1,-1],"split_conditions":[-4.6472317E-1,1.924E1,1.5E-1,-6.6312265E-1,8.3E1,-6.440125E-3,1E0,4.7306893E-3,1.5221132E-3,-3.5452333E-3,9.6774835E-4,-1.5902265E-3,1.2013745E-3],"split_indices":[19,7,3,19,14,0,13,0,0,0,0,0,0],"split_type":[0,0,0,0,0,0,0,0,0,0,0,0,0],"sum_hessian":[1.24E3,9.54E2,2.86E2,4.15E2,5.39E2,2.28E2,5.8E1,3.05E2,1.1E2,1.49E2,3.9E2,3.2E1,2.6E1],"tree_param":{"num_deleted":"0","num_feature":"20","num_nodes":"13","size_leaf_vector":"1"}},{"base_weights":[9.270756E-3,1.9036686E-1,-4.0331888E-1,4.117317E-1,5.627583E-3,-2.282532E-1,-7.1245776E-3,4.520772E-3,7.0538936E-4,-5.2348636E-3,9.4720453E-4,-1.2757971E-4,-4.088219E-3],"categories":[],"categories_nodes":[],"categories_segments":[],"categories_sizes":[],"default_left":[0,0,0,0,0,0,0,0,0,0,0,0,0],"id":70,"left_children":[1,3,5,7,9,11,-1,-1,-1,-1,-1,-1,-1],"loss_changes":[9.104909E1,3.4308456E1,1.6698353E1,4.285042E0,2.2989481E1,9.656136E0,0E0,0E0,0E0,0E0,0E0,0E0,0E0],"parents":[2147483647,0,0,1,1,2,2,3,3,4,4,5,5],"right_children":[2,4,6,8,10,12,-1,-1,-1,-1,-1,-1,-1],"split_conditions":[-5.6806475E-1,1.949E1,-2.3931566E-1,8.07E1,5E0,1.316E1,-7.1245776E-3,4.520772E-3,7.0538936E-4,-5.2348636E-3,9.4720453E-4,-1.2757971E-4,-4.088219E-3],"split_indices":[19,7,19,4,18,7,0,0,0,0,0,0,0],"split_type":[0,0,0,0,0,0,0,0,0,0,0,0,0],"sum_hessian":[1.191E3,8.35E2,3.56E2,3.69E2,4.66E2,2.46E2,1.1E2,3.23E2,4.6E1,5.5E1,4.11E2,1.22E2,1.24E2],"tree_param":{"num_deleted":"0","num_feature":"20","num_nodes":"13","size_leaf_vector":"1"}},{"base_weights":[1.3757726E-2,2.0932724E-1,-4.5794192E-1,3.743714E-1,-1.1707079E-2,-5.8844095E-1,6.486593E-3,4.350823E-3,1.5502841E-3,-4.1680117E-3,7.0724636E-4,-6.9418293E-3,-3.1550159E-3,-8.9654286E-4,1.1554419E-3],"categories":[],"categories_nodes":[],"categories_segments":[],"categories_sizes":[],"default_left":[0,0,0,0,0,0,0,0,0,0,0,0,0,0,0],"id":71,"left_children":[1,3,5,7,9,11,13,-1,-1,-1,-1,-1,-1,-1,-1],"loss_changes":[1.1474912E2,3.2604137E1,2.2700325E1,5.1629333E0,1.377797E1,3.9593735E0,1.1563705E0,0E0,0E0,0E0,0E0,0E0,0E0,0E0,0E0],"parents":[2147483647,0,0,1,1,2,2,3,3,4,4,5,5,6,6],"right_children":[2,4,6,8,10,12,14,-1,-1,-1,-1,-1,-1,-1,-1],"split_conditions":[-5.6806475E-1,5.5E1,2E-1,8.02E1,6E0,0E0,1E0,4.350823E-3,1.5502841E-3,-4.1680117E-3,7.0724636E-4,-6.9418293E-3,-3.1550159E-3,-8.9654286E-4,1.1554419E-3],"split_indices":[19,0,3,4,18,3,13,0,0,0,0,0,0,0,0],"split_type":[0,0,0,0,0,0,0,0,0,0,0,0,0,0,0],"sum_hessian":[1.216E3,8.67E2,3.49E2,4.93E2,3.74E2,2.71E2,7.8E1,3.71E2,1.22E2,5.5E1,3.19E2,1.76E2,9.5E1,3.8E1,4E1],"tree_param":{"num_deleted":"0","num_feature":"20","num_nodes":"15","size_leaf_vector":"1"}},{"base_weights":[1.4195507E-2,1.2964125E-1,-4.4133183E-1,-1.3564654E-1,3.2342649E-1,-6.008911E-1,7.55115E-2,-4.3644425E-3,3.0878004E-5,4.023154E-3,1.8479892E-4,-6.550019E-3,-1.1652776E-3,-2.048941E-3,3.4652897E-3],"categories":[],"categories_nodes":[],"categories_segments":[],"categories_sizes":[],"default_left":[0,0,0,0,0,0,0,0,0,0,0,0,0,0,0],"id":72,"left_children":[1,3,5,7,9,11,13,-1,-1,-1,-1,-1,-1,-1,-1],"loss_changes":[6.644016E1,5.292301E1,2.2235123E1,1.8648273E1,1.3709373E1,3.2730255E0,6.6782885E0,0E0,0E0,0E0,0E0,0E0,0E0,0E0,0E0],"parents":[2147483647,0,0,1,1,2,2,3,3,4,4,5,5,6,6],"right_children":[2,4,6,8,10,12,14,-1,-1,-1,-1,-1,-1,-1,-1],"split_conditions":[7.77E1,6E0,1.576E1,2E0,8.23E1,3.08E0,2.7E1,-4.3644425E-3,3.0878004E-5,4.023154E-3,1.8479892E-4,-6.550019E-3,-1.1652776E-3,-2.048941E-3,3.4652897E-3],"split_indices":[0,18,8,16,4,6,18,0,0,0,0,0,0,0,0],"split_type":[0,0,0,0,0,0,0,0,0,0,0,0,0,0,0],"sum_hessian":[1.238E3,9.98E2,2.4E2,4.21E2,5.77E2,1.83E2,5.7E1,1.25E2,2.96E2,4.52E2,1.25E2,1.58E2,2.5E1,2.8E1,2.9E1],"tree_param":{"num_deleted":"0","num_feature":"20","num_nodes":"15","size_leaf_vector":"1"}},{"base_weights":[-1.4527362E-2,1.3924722E-1,-4.1228774E-1,2.9363677E-1,-9.868634E-2,-2.2970034E-1,-7.0976317E-3,6.774337E-4,3.944095E-3,-4.0720026E-3,6.114935E-4,1.8294668E-4,-4.24419E-3],"categories":[],"categories_nodes":[],"categories_segments":[],"categories_sizes":[],"default_left":[0,0,0,0,0,0,0,0,0,0,0,0,0],"id":73,"left_children":[1,3,5,7,9,11,-1,-1,-1,-1,-1,-1,-1],"loss_changes":[7.734632E1,3.398451E1,1.5788334E1,1.1816563E1,1.8767576E1,1.2256886E1,0E0,0E0,0E0,0E0,0E0,0E0,0E0],"parents":[2147483647,0,0,1,1,2,2,3,3,4,4,5,5],"right_children":[2,4,6,8,10,12,-1,-1,-1,-1,-1,-1,-1],"split_conditions":[-5.6806475E-1,5.91E1,-2.3931566E-1,6E0,1.01E2,1.333E1,-7.0976317E-3,6.774337E-4,3.944095E-3,-4.0720026E-3,6.114935E-4,1.8294668E-4,-4.24419E-3],"split_indices":[19,0,19,18,14,7,0,0,0,0,0,0,0],"split_type":[0,0,0,0,0,0,0,0,0,0,0,0,0],"sum_hessian":[1.231E3,8.93E2,3.38E2,5.42E2,3.51E2,2.28E2,1.1E2,1.78E2,3.64E2,1.14E2,2.37E2,1.04E2,1.24E2],"tree_param":{"num_deleted":"0","num_feature":"20","num_nodes":"13","size_leaf_vector":"1"}},{"base_weights":[9.941714E-3,-2.6763994E-1,2.8935823E-1,2.2953019E-2,-5.170157E-1,2.4091527E-2,4.206054E-1,-1.2096413E-3,4.4850907E-3,-2.963091E-3,-6.842145E-3,1.2281477E-3,-2.0702262E-3,4.6206275E-3,7.982358E-4],"categories":[],"categories_nodes":[],"categories_segments":[],"categories_sizes":[],"default_left":[0,0,0,0,0,0,0,0,0,0,0,0,0,0,0],"id":74,"left_children":[1,3,5,7,9,11,13,-1,-1,-1,-1,-1,-1,-1,-1],"loss_changes":[9.549743E1,4.531164E1,2.0814842E1,1.933106E1,8.303627E0,5.3624015E0,4.6690598E0,0E0,0E0,0E0,0E0,0E0,0E0,0E0,0E0],"parents":[2147483647,0,0,1,1,2,2,3,3,4,4,5,5,6,6],"right_children":[2,4,6,8,10,12,14,-1,-1,-1,-1,-1,-1,-1,-1],"split_conditions":[1.5E-1,-6.6312265E-1,6E0,7.21E1,-3.546049E-1,1.897E1,2.229E1,-1.2096413E-3,4.4850907E-3,-2.963091E-3,-6.842145E-3,1.2281477E-3,-2.0702262E-3,4.6206275E-3,7.982358E-4],"split_indices":[3,19,18,10,19,7,7,0,0,0,0,0,0,0,0],"split_type":[0,0,0,0,0,0,0,0,0,0,0,0,0,0,0],"sum_hessian":[1.201E3,6.01E2,6E2,2.82E2,3.19E2,2.07E2,3.93E2,2.17E2,6.5E1,1.58E2,1.61E2,1.53E2,5.4E1,3.43E2,5E1],"tree_param":{"num_deleted":"0","num_feature":"20","num_nodes":"15","size_leaf_vector":"1"}},{"base_weights":[1.2474071E-2,2.2535086E-1,-3.3134562E-1,4.899834E-1,6.266075E-2,-6.2452583E-3,-7.218814E-2,3.1390556E-3,5.962881E-3,-2.2601823E-3,1.9908766E-3,-4.565977E-3,9.95323E-4],"categories":[],"categories_nodes":[],"categories_segments":[],"categories_sizes":[],"default_left":[0,0,0,0,0,0,0,0,0,0,0,0,0],"id":75,"left_children":[1,3,5,7,9,-1,11,-1,-1,-1,-1,-1,-1],"loss_changes":[8.862394E1,3.1276634E1,3.3729733E1,1.5418625E0,1.9709686E1,0E0,1.8465658E1,0E0,0E0,0E0,0E0,0E0,0E0],"parents":[2147483647,0,0,1,1,2,2,3,3,4,4,6,6],"right_children":[2,4,6,8,10,-1,12,-1,-1,-1,-1,-1,-1],"split_conditions":[-6.6312265E-1,1.887E1,0E0,1.86E1,1.3E1,-6.2452583E-3,2E0,3.1390556E-3,5.962881E-3,-2.2601823E-3,1.9908766E-3,-4.565977E-3,9.95323E-4],"split_indices":[19,7,3,9,16,0,16,0,0,0,0,0,0],"split_type":[0,0,0,0,0,0,0,0,0,0,0,0,0],"sum_hessian":[1.182E3,7.35E2,4.47E2,2.66E2,4.69E2,1.98E2,2.49E2,1.26E2,1.4E2,1.45E2,3.24E2,7.1E1,1.78E2],"tree_param":{"num_deleted":"0","num_feature":"20","num_nodes":"13","size_leaf_vector":"1"}},{"base_weights":[-1.3077504E-2,-2.578109E-1,2.3311777E-1,-3.7836626E-1,3.028762E-2,-6.0457904E-2,3.4065285E-1,-4.422391E-3,-0E0,-2.355854E-3,1.1571562E-3,-4.1072397E-3,1.0193216E-3,3.6779165E-3,-5.722665E-4],"categories":[],"categories_nodes":[],"categories_segments":[],"categories_sizes":[],"default_left":[0,0,0,0,0,0,0,0,0,0,0,0,0,0,0],"id":76,"left_children":[1,3,5,7,9,11,13,-1,-1,-1,-1,-1,-1,-1,-1],"loss_changes":[7.5397934E1,2.2366287E1,2.0225456E1,1.0716831E1,4.763505E0,1.1004495E1,5.5933495E0,0E0,0E0,0E0,0E0,0E0,0E0,0E0,0E0],"parents":[2147483647,0,0,1,1,2,2,3,3,4,4,5,5,6,6],"right_children":[2,4,6,8,10,12,14,-1,-1,-1,-1,-1,-1,-1,-1],"split_conditions":[2E-1,3.689E1,5E0,3.69E1,6.9E1,5.4E0,1.87E1,-4.422391E-3,-0E0,-2.355854E-3,1.1571562E-3,-4.1072397E-3,1.0193216E-3,3.6779165E-3,-5.722665E-4],"split_indices":[3,1,18,9,14,9,5,0,0,0,0,0,0,0,0],"split_type":[0,0,0,0,0,0,0,0,0,0,0,0,0,0,0],"sum_hessian":[1.221E3,6.14E2,6.07E2,4.32E2,1.82E2,1.62E2,4.45E2,3.67E2,6.5E1,3.5E1,1.47E2,4.6E1,1.16E2,4.2E2,2.5E1],"tree_param":{"num_deleted":"0","num_feature":"20","num_nodes":"15","size_leaf_vector":"1"}},{"base_weights":[1.2756825E-2,-2.2196162E-1,2.3908536E-1,-3.0752563E-1,1.2176985E-1,-2.2013038E-3,2.9577678E-1,-1.7823982E-3,-5.5916808E-3,-6.5628294E-4,3.1905973E-3,3.757858E-3,5.7237514E-4],"categories":[],"categories_nodes":[],"categories_segments":[],"categories_sizes":[],"default_left":[0,0,0,0,0,0,0,0,0,0,0,0,0],"id":77,"left_children":[1,3,5,7,9,-1,11,-1,-1,-1,-1,-1,-1],"loss_changes":[6.567691E1,1.8541153E1,1.7479492E1,1.3741703E1,5.3368783E0,0E0,1.0122959E1,0E0,0E0,0E0,0E0,0E0,0E0],"parents":[2147483647,0,0,1,1,2,2,3,3,4,4,6,6],"right_children":[2,4,6,8,10,-1,12,-1,-1,-1,-1,-1,-1],"split_conditions":[2.7E-1,1.546E1,3.1E1,7.79E1,2E0,-2.2013038E-3,8.07E1,-1.7823982E-3,-5.5916808E-3,-6.5628294E-4,3.1905973E-3,3.757858E-3,5.7237514E-4],"split_indices":[3,8,14,0,15,0,4,0,0,0,0,0,0],"split_type":[0,0,0,0,0,0,0,0,0,0,0,0,0],"sum_hessian":[1.206E3,5.9E2,6.16E2,4.76E2,1.14E2,6.1E1,5.55E2,3.34E2,1.42E2,6.1E1,5.3E1,4.06E2,1.49E2],"tree_param":{"num_deleted":"0","num_feature":"20","num_nodes":"13","size_leaf_vector":"1"}},{"base_weights":[-7.485759E-4,1.1183742E-1,-5.8820236E-1,2.3588984E-1,-2.4248423E-1,-6.6627567E-3,-7.323399E-4,3.0424734E-4,3.4995475E-3,-3.2378684E-3,1.2053567E-3],"categories":[],"categories_nodes":[],"categories_segments":[],"categories_sizes":[],"default_left":[0,0,0,0,0,0,0,0,0,0,0],"id":78,"left_children":[1,3,5,7,9,-1,-1,-1,-1,-1,-1],"loss_changes":[8.254961E1,4.656404E1,6.609848E0,1.7740265E1,8.905149E0,0E0,0E0,0E0,0E0,0E0,0E0],"parents":[2147483647,0,0,1,1,2,2,3,3,4,4],"right_children":[2,4,6,8,10,-1,-1,-1,-1,-1,-1],"split_conditions":[-3.546049E-1,7.66E1,2E0,6E0,7.309E1,-6.6627567E-3,-7.323399E-4,3.0424734E-4,3.4995475E-3,-3.2378684E-3,1.2053567E-3],"split_indices":[19,0,15,18,10,0,0,0,0,0,0],"split_type":[0,0,0,0,0,0,0,0,0,0,0],"sum_hessian":[1.211E3,1.025E3,1.86E2,7.65E2,2.6E2,1.56E2,3E1,2.83E2,4.82E2,2.16E2,4.4E1],"tree_param":{"num_deleted":"0","num_feature":"20","num_nodes":"11","size_leaf_vector":"1"}},{"base_weights":[-6.0296343E-3,-2.4188267E-1,2.3931395E-1,-3.6097327E-1,1.3716191E-1,-1.2929077E-1,2.9116362E-1,-1.8878741E-3,-6.431082E-3,-1.1164165E-3,3.02421E-3,-2.4357392E-3,1.7835354E-4,3.6903846E-3,7.6094165E-4],"categories":[],"categories_nodes":[],"categories_segments":[],"categories_sizes":[],"default_left":[0,0,0,0,0,0,0,0,0,0,0,0,0,0,0],"id":79,"left_children":[1,3,5,7,9,11,13,-1,-1,-1,-1,-1,-1,-1,-1],"loss_changes":[7.1061134E1,2.9314808E1,1.2193764E1,2.085949E1,7.234833E0,1.669653E0,8.060593E0,0E0,0E0,0E0,0E0,0E0,0E0,0E0,0E0],"parents":[2147483647,0,0,1,1,2,2,3,3,4,4,5,5,6,6],"right_children":[2,4,6,8,10,12,14,-1,-1,-1,-1,-1,-1,-1,-1],"split_conditions":[2.7E-1,1.539E1,3.2E1,7.79E1,2.3E1,1.97E0,8.02E1,-1.8878741E-3,-6.431082E-3,-1.1164165E-3,3.02421E-3,-2.4357392E-3,1.7835354E-4,3.6903846E-3,7.6094165E-4],"split_indices":[3,8,14,0,16,11,4,0,0,0,0,0,0,0,0],"split_type":[0,0,0,0,0,0,0,0,0,0,0,0,0,0,0],"sum_hessian":[1.198E3,6.13E2,5.85E2,4.69E2,1.44E2,6.7E1,5.18E2,3.09E2,1.6E2,5.7E1,8.7E1,3.6E1,3.1E1,3.69E2,1.49E2],"tree_param":{"num_deleted":"0","num_feature":"20","num_nodes":"15","size_leaf_vector":"1"}},{"base_weights":[-8.592218E-3,1.5459333E-1,-4.1878012E-1,3.946644E-1,-2.5920553E-2,-2.4844848E-1,-6.583088E-3,9.0985623E-4,4.403675E-3,5.055959E-4,-3.5909493E-3,-2.0872375E-4,-3.9187036E-3],"categories":[],"categories_nodes":[],"categories_segments":[],"categories_sizes":[],"default_left":[0,0,0,0,0,0,0,0,0,0,0,0,0],"id":80,"left_children":[1,3,5,7,9,11,-1,-1,-1,-1,-1,-1,-1],"loss_changes":[8.336668E1,3.8961372E1,1.1123665E1,4.197201E0,1.3780145E1,7.102188E0,0E0,0E0,0E0,0E0,0E0,0E0,0E0],"parents":[2147483647,0,0,1,1,2,2,3,3,4,4,5,5],"right_children":[2,4,6,8,10,12,-1,-1,-1,-1,-1,-1,-1],"split_conditions":[-5.6806475E-1,1.954E1,-2.3931566E-1,3.2E1,-7.485108E-1,1.316E1,-6.583088E-3,9.0985623E-4,4.403675E-3,5.055959E-4,-3.5909493E-3,-2.0872375E-4,-3.9187036E-3],"split_indices":[19,7,19,14,19,7,0,0,0,0,0,0,0],"split_type":[0,0,0,0,0,0,0,0,0,0,0,0,0],"sum_hessian":[1.212E3,8.72E2,3.4E2,3.69E2,5.03E2,2.19E2,1.21E2,5.7E1,3.12E2,4.17E2,8.6E1,9.4E1,1.25E2],"tree_param":{"num_deleted":"0","num_feature":"20","num_nodes":"13","size_leaf_vector":"1"}},{"base_weights":[-1.2386105E-2,1.2754273E-1,-4.6161997E-1,-1.3138923E-1,2.6355538E-1,-2.7640608E-1,-6.8991655E-3,-4.399046E-3,-1.6900431E-4,3.9050227E-3,1.1358627E-4,-2.2383628E-4,-4.4592903E-3],"categories":[],"categories_nodes":[],"categories_segments":[],"categories_sizes":[],"default_left":[0,0,0,0,0,0,0,0,0,0,0,0,0],"id":81,"left_children":[1,3,5,7,9,11,-1,-1,-1,-1,-1,-1,-1],"loss_changes":[7.639871E1,3.312261E1,8.393208E0,1.0911179E1,1.9125149E1,7.4346733E0,0E0,0E0,0E0,0E0,0E0,0E0,0E0],"parents":[2147483647,0,0,1,1,2,2,3,3,4,4,5,5],"right_children":[2,4,6,8,10,12,-1,-1,-1,-1,-1,-1,-1],"split_conditions":[-4.6472317E-1,6.566E1,-2.3931566E-1,5E0,8.07E1,7.4E0,-6.8991655E-3,-4.399046E-3,-1.6900431E-4,3.9050227E-3,1.1358627E-4,-2.2383628E-4,-4.4592903E-3],"split_indices":[19,10,19,18,4,8,0,0,0,0,0,0,0],"split_type":[0,0,0,0,0,0,0,0,0,0,0,0,0],"sum_hessian":[1.181E3,9.07E2,2.74E2,3.1E2,5.97E2,1.72E2,1.02E2,7E1,2.4E2,3.89E2,2.08E2,7.8E1,9.4E1],"tree_param":{"num_deleted":"0","num_feature":"20","num_nodes":"13","size_leaf_vector":"1"}},{"base_weights":[-1.1968015E-2,1.2855111E-1,-4.6034876E-1,2.359085E-1,-3.0342346E-1,-5.5185175E-1,-5.847596E-2,3.4337528E-3,8.896709E-5,-4.774407E-3,3.1214738E-3,-2.5601573E-3,-6.2644617E-3,-1.5092765E-3,2.7285216E-4],"categories":[],"categories_nodes":[],"categories_segments":[],"categories_sizes":[],"default_left":[0,0,0,0,0,0,0,0,0,0,0,0,0,0,0],"id":82,"left_children":[1,3,5,7,9,11,13,-1,-1,-1,-1,-1,-1,-1,-1],"loss_changes":[7.991405E1,4.5573196E1,1.0047707E1,1.863097E1,2.339628E1,2.074295E0,7.800714E-1,0E0,0E0,0E0,0E0,0E0,0E0,0E0,0E0],"parents":[2147483647,0,0,1,1,2,2,3,3,4,4,5,5,6,6],"right_children":[2,4,6,8,10,12,14,-1,-1,-1,-1,-1,-1,-1,-1],"split_conditions":[-4.6472317E-1,7.74E1,1.5E-1,8.03E1,7.263E1,-3.546049E-1,3E1,3.4337528E-3,8.896709E-5,-4.774407E-3,3.1214738E-3,-2.5601573E-3,-6.2644617E-3,-1.5092765E-3,2.7285216E-4],"split_indices":[19,0,3,4,10,19,14,0,0,0,0,0,0,0,0],"split_type":[0,0,0,0,0,0,0,0,0,0,0,0,0,0,0],"sum_hessian":[1.234E3,9.46E2,2.88E2,7.65E2,1.81E2,2.28E2,6E1,5.11E2,2.54E2,1.45E2,3.6E1,6.2E1,1.66E2,2.9E1,3.1E1],"tree_param":{"num_deleted":"0","num_feature":"20","num_nodes":"15","size_leaf_vector":"1"}},{"base_weights":[-1.0552722E-2,1.5530683E-1,-4.1038612E-1,3.5585958E-1,-5.14725E-2,-2.6161915E-1,-6.542441E-3,1.2310254E-3,4.509048E-3,3.162314E-3,-1.7398995E-3,-1.2847715E-3,-4.7799726E-3],"categories":[],"categories_nodes":[],"categories_segments":[],"categories_sizes":[],"default_left":[0,0,0,0,0,0,0,0,0,0,0,0,0],"id":83,"left_children":[1,3,5,7,9,11,-1,-1,-1,-1,-1,-1,-1],"loss_changes":[8.198424E1,3.6658188E1,9.685619E0,8.459991E0,2.0460089E1,5.76103E0,0E0,0E0,0E0,0E0,0E0,0E0,0E0],"parents":[2147483647,0,0,1,1,2,2,3,3,4,4,5,5],"right_children":[2,4,6,8,10,12,-1,-1,-1,-1,-1,-1,-1],"split_conditions":[-5.6806475E-1,2.944E1,-2.3931566E-1,9E0,1.43E0,2.311E1,-6.542441E-3,1.2310254E-3,4.509048E-3,3.162314E-3,-1.7398995E-3,-1.2847715E-3,-4.7799726E-3],"split_indices":[19,1,19,16,11,1,0,0,0,0,0,0,0],"split_type":[0,0,0,0,0,0,0,0,0,0,0,0,0],"sum_hessian":[1.203E3,8.55E2,3.48E2,4.31E2,4.24E2,2.38E2,1.1E2,1.38E2,2.93E2,9.8E1,3.26E2,1.65E2,7.3E1],"tree_param":{"num_deleted":"0","num_feature":"20","num_nodes":"13","size_leaf_vector":"1"}},{"base_weights":[-1.3773201E-3,1.7084174E-1,-4.2477888E-1,-2.0651065E-1,2.7422374E-1,-5.428274E-1,-8.60102E-3,-3.5284879E-3,-9.4593444E-5,3.9963173E-3,2.7003916E-4,-3.2839167E-3,-6.3099614E-3,-1.7498937E-3,1.2842653E-3],"categories":[],"categories_nodes":[],"categories_segments":[],"categories_sizes":[],"default_left":[0,0,0,0,0,0,0,0,0,0,0,0,0,0,0],"id":84,"left_children":[1,3,5,7,9,11,13,-1,-1,-1,-1,-1,-1,-1,-1],